{"learner":{"attributes":{"scikit_learn":"{\"_estimator_type\": \"classifier\"}"},"feature_names":[],"feature_types":[],"gradient_booster":{"model":{"cats":{"enc":[],"feature_segments":[],"sorted_idx":[]},"gbtree_model_param":{"num_parallel_tree":"1","num_trees":"200"},"iteration_indptr":[0,1,2,3,4,5,6,7,8,9,10,11,12,13,14,15,16,17,18,19,20,21,22,23,24,25,26,27,28,29,30,31,32,33,34,35,36,37,38,39,40,41,42,43,44,45,46,47,48,49,50,51,52,53,54,55,56,57,58,59,60,61,62,63,64,65,66,67,68,69,70,71,72,73,74,75,76,77,78,79,80,81,82,83,84,85,86,87,88,89,90,91,92,93,94,95,96,97,98,99,100,101,102,103,104,105,106,107,108,109,110,111,112,113,114,115,116,117,118,119,120,121,122,123,124,125,126,127,128,129,130,131,132,133,134,135,136,137,138,139,140,141,142,143,144,145,146,147,148,149,150,151,152,153,154,155,156,157,158,159,160,161,162,163,164,165,166,167,168,169,170,171,172,173,174,175,176,177,178,179,180,181,182,183,184,185,186,187,188,189,190,191,192,193,194,195,196,197,198,199,200],"tree_info":[0,0,0,0,0,0,0,0,0,0,0,0,0,0,0,0,0,0,0,0,0,0,0,0,0,0,0,0,0,0,0,0,0,0,0,0,0,0,0,0,0,0,0,0,0,0,0,0,0,0,0,0,0,0,0,0,0,0,0,0,0,0,0,0,0,0,0,0,0,0,0,0,0,0,0,0,0,0,0,0,0,0,0,0,0,0,0,0,0,0,0,0,0,0,0,0,0,0,0,0,0,0,0,0,0,0,0,0,0,0,0,0,0,0,0,0,0,0,0,0,0,0,0,0,0,0,0,0,0,0,0,0,0,0,0,0,0,0,0,0,0,0,0,0,0,0,0,0,0,0,0,0,0,0,0,0,0,0,0,0,0,0,0,0,0,0,0,0,0,0,0,0,0,0,0,0,0,0,0,0,0,0,0,0,0,0,0,0,0,0,0,0,0,0,0,0,0,0,0,0],"trees":[{"base_weights":[-1.7607429E-3,-1.6407323E0,1.9785538E0,-1.9959441E-1,1.902558E0,1.9955067E-1,-1.6114729E-2,9.616842E-2,1.9566357E-1],"categories":[],"categories_nodes":[],"categories_segments":[],"categories_sizes":[],"default_left":[0,0,0,0,0,0,0,0,0],"id":0,"left_children":[1,3,5,-1,7,-1,-1,-1,-1],"loss_changes":[3.3755876E3,7.20072E2,1.7588257E1,0E0,4.895172E-1,0E0,0E0,0E0,0E0],"parents":[2147483647,0,0,1,1,2,2,4,4],"right_children":[2,4,6,-1,8,-1,-1,-1,-1],"split_conditions":[3.32E0,8.2E-1,-4E-1,-1.9959441E-1,7.036115E-1,1.9955067E-1,-1.6114729E-2,9.616842E-2,1.9566357E-1],"split_indices":[53,50,54,0,10,0,0,0,0],"split_type":[0,0,0,0,0,0,0,0,0],"sum_hessian":[1.0380353E3,5.680888E2,4.6994647E2,5.1675E2,5.1338806E1,4.6636557E2,3.5809002E0,3.9118004E0,4.7427006E1],"tree_param":{"num_deleted":"0","num_feature":"77","num_nodes":"9","size_leaf_vector":"1"}},{"base_weights":[2.281952E-2,-1.5070041E0,1.7957911E0,-1.8162014E-1,1.7325495E0,1.2801773E-3,1.8070062E0,1.7872934E-1,8.557291E-2,1.8126202E-1,8.731734E-2],"categories":[],"categories_nodes":[],"categories_segments":[],"categories_sizes":[],"default_left":[0,0,0,0,0,0,0,0,0,0,0],"id":1,"left_children":[1,3,5,-1,7,-1,9,-1,-1,-1,-1],"loss_changes":[2.7992043E3,5.580497E2,9.354126E0,0E0,5.463104E-1,0E0,6.3879395E-1,0E0,0E0,0E0,0E0],"parents":[2147483647,0,0,1,1,2,2,4,4,6,6],"right_children":[2,4,6,-1,8,-1,10,-1,-1,-1,-1],"split_conditions":[1.53E0,8.2E-1,8.7E-1,-1.8162014E-1,-1.4429E0,1.2801773E-3,1.8E-1,1.7872934E-1,8.557291E-2,1.8126202E-1,8.731734E-2],"split_indices":[56,50,53,0,42,0,55,0,0,0,0],"split_type":[0,0,0,0,0,0,0,0,0,0,0],"sum_hessian":[1.0300195E3,5.529744E2,4.770451E2,5.0522388E2,4.7750546E1,3.051025E0,4.7399408E2,4.385976E1,3.8907852E0,4.7011975E2,3.8743103E0],"tree_param":{"num_deleted":"0","num_feature":"77","num_nodes":"11","size_leaf_vector":"1"}},{"base_weights":[1.6979555E-2,-1.5670882E0,1.590753E0,-1.6812555E-1,1.5076987E-1,1.6615738E0,-1.5367779E-1,-3.4511555E-2,1.6796762E-1],"categories":[],"categories_nodes":[],"categories_segments":[],"categories_sizes":[],"default_left":[0,0,0,0,0,0,0,0,0],"id":2,"left_children":[1,3,5,-1,-1,7,-1,-1,-1],"loss_changes":[2.497976E3,1.7784216E2,1.139032E2,0E0,0E0,1.8586914E1,0E0,0E0,0E0],"parents":[2147483647,0,0,1,1,2,2,5,5],"right_children":[2,4,6,-1,-1,8,-1,-1,-1],"split_conditions":[1.0335861E0,8.2E-1,1.013E2,-1.6812555E-1,1.5076987E-1,-3E-1,-1.5367779E-1,-3.4511555E-2,1.6796762E-1],"split_indices":[34,50,69,0,0,56,0,0,0],"split_type":[0,0,0,0,0,0,0,0,0],"sum_hessian":[1.00000964E3,4.9834528E2,5.0166434E2,4.8097244E2,1.7372828E1,4.9104565E2,1.061869E1,4.179231E0,4.8686642E2],"tree_param":{"num_deleted":"0","num_feature":"77","num_nodes":"9","size_leaf_vector":"1"}},{"base_weights":[-7.6058456E-3,-1.4050579E0,1.4895918E0,-1.5761013E-1,1.4849035E0,-4.6981245E-1,1.5680978E0,1.5578514E-1,7.53234E-2,-1.4788301E-1,1.4090517E-1,6.283157E-2,1.5745978E-1],"categories":[],"categories_nodes":[],"categories_segments":[],"categories_sizes":[],"default_left":[0,0,0,0,0,0,0,0,0,0,0,0,0],"id":3,"left_children":[1,3,5,-1,7,9,11,-1,-1,-1,-1,-1,-1],"loss_changes":[2.0323623E3,2.5071747E2,7.297815E1,0E0,1.1973953E-1,3.770249E1,1.5461426E0,0E0,0E0,0E0,0E0,0E0,0E0],"parents":[2147483647,0,0,1,1,2,2,4,4,5,5,6,6],"right_children":[2,4,6,-1,8,10,12,-1,-1,-1,-1,-1,-1],"split_conditions":[1.0335861E0,1.8457E0,4.7E-1,-1.5761013E-1,1.4462703E0,1.923E1,3.671E1,1.5578514E-1,7.53234E-2,-1.4788301E-1,1.4090517E-1,6.283157E-2,1.5745978E-1],"split_indices":[34,41,56,0,20,38,76,0,0,0,0,0,0],"split_type":[0,0,0,0,0,0,0,0,0,0,0,0,0],"sum_hessian":[9.6937463E2,5.0145535E2,4.6791928E2,4.7389682E2,2.7558514E1,1.7784489E1,4.501348E2,2.3908928E1,3.6495862E0,1.1743789E1,6.040701E0,3.8684797E0,4.4626633E2],"tree_param":{"num_deleted":"0","num_feature":"77","num_nodes":"13","size_leaf_vector":"1"}},{"base_weights":[1.37814265E-2,-1.3272033E0,1.4003159E0,-1.4909162E-1,1.4062687E0,-1.340425E-1,1.4513652E0,1.4739206E-1,6.7668185E-2,3.1243634E-1,1.4878143E-1,-1.2871678E-1,1.3869065E-1],"categories":[],"categories_nodes":[],"categories_segments":[],"categories_sizes":[],"default_left":[0,0,0,0,0,0,0,0,0,0,0,0,0],"id":4,"left_children":[1,3,5,-1,7,-1,9,-1,-1,11,-1,-1,-1],"loss_changes":[1.7361031E3,2.1450317E2,6.619043E1,0E0,1.3504791E-1,0E0,1.8086426E1,0E0,0E0,2.8166283E1,0E0,0E0,0E0],"parents":[2147483647,0,0,1,1,2,2,4,4,6,6,9,9],"right_children":[2,4,6,-1,8,-1,10,-1,-1,12,-1,-1,-1],"split_conditions":[1.0206611E0,8.2E-1,-1.7E0,-1.4909162E-1,-1.1016731E0,-1.340425E-1,3.7E-1,1.4739206E-1,6.7668185E-2,1.923E1,1.4878143E-1,-1.2871678E-1,1.3869065E-1],"split_indices":[34,50,58,0,29,0,56,0,0,38,0,0,0],"split_type":[0,0,0,0,0,0,0,0,0,0,0,0,0],"sum_hessian":[9.317259E2,4.7362796E2,4.580979E2,4.4732782E2,2.6300152E1,7.878903E0,4.50219E2,2.3009308E1,3.2908425E0,1.4343407E1,4.358756E2,5.6463895E0,8.697018E0],"tree_param":{"num_deleted":"0","num_feature":"77","num_nodes":"13","size_leaf_vector":"1"}},{"base_weights":[-4.481985E-2,-1.3186992E0,1.3402421E0,-1.4226E-1,1.2323229E0,1.4069626E0,-1.3074526E-1,5.0507344E-2,1.3597336E-1,-1.5395504E-2,1.4210044E-1],"categories":[],"categories_nodes":[],"categories_segments":[],"categories_sizes":[],"default_left":[0,0,0,0,0,0,0,0,0,0,0],"id":5,"left_children":[1,3,5,-1,7,9,-1,-1,-1,-1,-1],"loss_changes":[1.5219038E3,1.2086951E2,7.484802E1,0E0,8.023052E-1,9.191284E0,0E0,0E0,0E0,0E0,0E0],"parents":[2147483647,0,0,1,1,2,2,4,4,5,5],"right_children":[2,4,6,-1,8,10,-1,-1,-1,-1,-1],"split_conditions":[1.0335861E0,1.8457E0,1.013E2,-1.4226E-1,8.791484E-1,-3E-1,-1.3074526E-1,5.0507344E-2,1.3597336E-1,-1.5395504E-2,1.4210044E-1],"split_indices":[34,41,69,0,10,56,0,0,0,0,0],"split_type":[0,0,0,0,0,0,0,0,0,0,0],"sum_hessian":[8.6056024E2,4.483347E2,4.1222556E2,4.3125177E2,1.7082926E1,4.0258694E2,9.638589E0,3.4037263E0,1.3679198E1,3.4370012E0,3.9914996E2],"tree_param":{"num_deleted":"0","num_feature":"77","num_nodes":"11","size_leaf_vector":"1"}},{"base_weights":[3.094969E-3,-1.2609345E0,1.251564E0,-1.3663164E-1,1.2693563E-1,1.3290341E0,-1.0511571E0,-1.11192085E-1,1.3550663E0,-1.4327948E-2,-1.2789342E-1,2.9618284E-2,1.3641451E-1],"categories":[],"categories_nodes":[],"categories_segments":[],"categories_sizes":[],"default_left":[0,0,0,0,0,0,0,0,0,0,0,0,0],"id":6,"left_children":[1,3,5,-1,-1,7,9,-1,11,-1,-1,-1,-1],"loss_changes":[1.3052948E3,1.113266E2,7.566522E1,0E0,0E0,2.714569E1,2.5823898E0,0E0,3.268982E0,0E0,0E0,0E0,0E0],"parents":[2147483647,0,0,1,1,2,2,5,5,6,6,8,8],"right_children":[2,4,6,-1,-1,8,10,-1,12,-1,-1,-1,-1],"split_conditions":[1.0010941E0,8.2E-1,1.013E2,-1.3663164E-1,1.2693563E-1,-5E-1,1.0206611E0,-1.11192085E-1,3.493E1,-1.4327948E-2,-1.2789342E-1,2.9618284E-2,1.3641451E-1],"split_indices":[34,50,69,0,0,56,34,0,64,0,0,0,0],"split_type":[0,0,0,0,0,0,0,0,0,0,0,0,0],"sum_hessian":[8.251304E2,4.0996533E2,4.1516504E2,3.9405328E2,1.591205E1,4.0210342E2,1.3061634E1,3.7623868E0,3.9834103E2,3.0345464E0,1.0027087E1,3.765826E0,3.945752E2],"tree_param":{"num_deleted":"0","num_feature":"77","num_nodes":"13","size_leaf_vector":"1"}},{"base_weights":[-1.5277403E-3,-1.1434106E0,1.2967538E0,-1.320735E-1,1.2847567E-1,1.2062926E-1,1.3173185E-1,-3.386248E-2,6.1469417E-2],"categories":[],"categories_nodes":[],"categories_segments":[],"categories_sizes":[],"default_left":[0,0,0,0,0,0,0,0,0],"id":7,"left_children":[1,3,5,-1,-1,7,-1,-1,-1],"loss_changes":[1.1473696E3,1.7902069E2,8.456177E0,0E0,0E0,1.9165398E0,0E0,0E0,0E0],"parents":[2147483647,0,0,1,1,2,2,5,5],"right_children":[2,4,6,-1,-1,8,-1,-1,-1],"split_conditions":[1.0925508E0,8.2E-1,3.542E1,-1.320735E-1,1.2847567E-1,9.049E-1,1.3173185E-1,-3.386248E-2,6.1469417E-2],"split_indices":[34,50,64,0,0,52,0,0,0],"split_type":[0,0,0,0,0,0,0,0,0],"sum_hessian":[7.7196027E2,4.108234E2,3.6113687E2,3.83327E2,2.7496393E1,6.4075475E0,3.547293E2,3.3789163E0,3.0286314E0],"tree_param":{"num_deleted":"0","num_feature":"77","num_nodes":"9","size_leaf_vector":"1"}},{"base_weights":[7.085385E-4,-1.0443217E0,1.2610376E0,-1.2754409E0,1.270778E-1,1.2792383E-1,-2.9121712E-2,-1.2839508E-1,-3.1318832E-2],"categories":[],"categories_nodes":[],"categories_segments":[],"categories_sizes":[],"default_left":[0,0,0,0,0,0,0,0,0],"id":8,"left_children":[1,3,5,7,-1,-1,-1,-1,-1],"loss_changes":[9.486966E2,2.1229395E2,9.697144E0,2.3740234E0,0E0,0E0,0E0,0E0,0E0],"parents":[2147483647,0,0,1,1,2,2,3,3],"right_children":[2,4,6,8,-1,-1,-1,-1,-1],"split_conditions":[3.32E0,2.2943E0,-3.7E-1,2E0,1.270778E-1,1.2792383E-1,-2.9121712E-2,-1.2839508E-1,-3.1318832E-2],"split_indices":[53,41,54,32,0,0,0,0,0],"split_type":[0,0,0,0,0,0,0,0,0],"sum_hessian":[7.182855E2,3.9273364E2,3.255519E2,3.5753296E2,3.5200672E1,3.2201648E2,3.5354466E0,3.5396436E2,3.568602E0],"tree_param":{"num_deleted":"0","num_feature":"77","num_nodes":"9","size_leaf_vector":"1"}},{"base_weights":[2.1847442E-2,-1.1242298E0,1.1692048E0,-1.2454983E-1,1.069406E0,1.2314402E0,-1.14520006E-1,3.5012018E-2,1.18973374E-1,1.8026171E-2,1.2431466E-1],"categories":[],"categories_nodes":[],"categories_segments":[],"categories_sizes":[],"default_left":[0,0,0,0,0,0,0,0,0,0,0],"id":9,"left_children":[1,3,5,-1,7,9,-1,-1,-1,-1,-1],"loss_changes":[8.8561017E2,9.097037E1,4.990033E1,0E0,9.9978447E-1,3.6734924E0,0E0,0E0,0E0,0E0,0E0],"parents":[2147483647,0,0,1,1,2,2,4,4,5,5],"right_children":[2,4,6,-1,8,10,-1,-1,-1,-1,-1],"split_conditions":[1.0335861E0,8.2E-1,1.013E2,-1.2454983E-1,7.036115E-1,-1.3E-1,-1.14520006E-1,3.5012018E-2,1.18973374E-1,1.8026171E-2,1.2431466E-1],"split_indices":[34,50,69,0,10,56,0,0,0,0,0],"split_type":[0,0,0,0,0,0,0,0,0,0,0],"sum_hessian":[6.7148517E2,3.3589645E2,3.3558868E2,3.18753E2,1.714349E1,3.2729865E2,8.290069E0,3.136305E0,1.4007185E1,3.8795068E0,3.2341913E2],"tree_param":{"num_deleted":"0","num_feature":"77","num_nodes":"11","size_leaf_vector":"1"}},{"base_weights":[-4.662086E-3,-1.0803978E0,1.1315268E0,-1.2160721E-1,1.0990417E-1,1.1925408E0,-1.1070205E-1,-2.6149062E-2,1.21094085E-1],"categories":[],"categories_nodes":[],"categories_segments":[],"categories_sizes":[],"default_left":[0,0,0,0,0,0,0,0,0],"id":10,"left_children":[1,3,5,-1,-1,7,-1,-1,-1],"loss_changes":[7.4809625E2,9.432745E1,4.1979706E1,0E0,0E0,8.177277E0,0E0,0E0,0E0],"parents":[2147483647,0,0,1,1,2,2,5,5],"right_children":[2,4,6,-1,-1,8,-1,-1,-1],"split_conditions":[1.0335861E0,8.2E-1,1.013E2,-1.2160721E-1,1.0990417E-1,-3E-1,-1.1070205E-1,-2.6149062E-2,1.21094085E-1],"split_indices":[34,50,69,0,0,56,0,0,0],"split_type":[0,0,0,0,0,0,0,0,0],"sum_hessian":[6.1007434E2,3.1344443E2,2.9662988E2,2.9553476E2,1.7909689E1,2.892578E2,7.3720727E0,3.3816752E0,2.8587613E2],"tree_param":{"num_deleted":"0","num_feature":"77","num_nodes":"9","size_leaf_vector":"1"}},{"base_weights":[-1.7298488E-2,-1.0792733E0,1.113831E0,-1.190542E-1,1.0252234E0,1.1715407E0,-1.0613848E-1,4.3480344E-2,1.13628104E-1,1.1841568E0,4.331983E-3,1.18960105E-1,5.435888E-2],"categories":[],"categories_nodes":[],"categories_segments":[],"categories_sizes":[],"default_left":[0,0,0,0,0,0,0,0,0,0,0,0,0],"id":11,"left_children":[1,3,5,-1,7,9,-1,-1,-1,11,-1,-1,-1],"loss_changes":[6.7712006E2,6.9325226E1,3.5514435E1,0E0,3.3853817E-1,3.6176147E0,0E0,0E0,0E0,9.832764E-2,0E0,0E0,0E0],"parents":[2147483647,0,0,1,1,2,2,4,4,5,5,9,9],"right_children":[2,4,6,-1,8,10,-1,-1,-1,12,-1,-1,-1],"split_conditions":[1.0335861E0,8.2E-1,1.013E2,-1.190542E-1,8.8951844E-1,1.9E-1,-1.0613848E-1,4.3480344E-2,1.13628104E-1,1.0552789E0,4.331983E-3,1.18960105E-1,5.435888E-2],"split_indices":[34,50,69,0,34,55,0,0,0,17,0,0,0],"split_type":[0,0,0,0,0,0,0,0,0,0,0,0,0],"sum_hessian":[5.6169055E2,2.8977036E2,2.7192023E2,2.7567664E2,1.40937395E1,2.6538675E2,6.533472E0,3.1520307E0,1.09417095E1,2.6231525E2,3.0715098E0,2.590999E2,3.2153099E0],"tree_param":{"num_deleted":"0","num_feature":"77","num_nodes":"13","size_leaf_vector":"1"}},{"base_weights":[-1.8368552E-3,-1.1082554E0,1.0390534E0,-1.1697658E-1,1.05156556E-1,-4.18689E-1,1.1519264E0,-1.1570628E-1,1.0364933E-1,2.779655E-2,1.164161E-1],"categories":[],"categories_nodes":[],"categories_segments":[],"categories_sizes":[],"default_left":[0,0,0,0,0,0,0,0,0,0,0],"id":12,"left_children":[1,3,5,-1,-1,7,9,-1,-1,-1,-1],"loss_changes":[6.070056E2,3.5190216E1,4.523285E1,0E0,0E0,2.2897612E1,2.2303772E0,0E0,0E0,0E0,0E0],"parents":[2147483647,0,0,1,1,2,2,5,5,6,6],"right_children":[2,4,6,-1,-1,8,10,-1,-1,-1,-1],"split_conditions":[9.855234E-1,1.7E1,4.7E-1,-1.1697658E-1,1.05156556E-1,4.743E-1,-3E-1,-1.1570628E-1,1.0364933E-1,2.779655E-2,1.164161E-1],"split_indices":[34,35,56,0,0,44,58,0,0,0,0],"split_type":[0,0,0,0,0,0,0,0,0,0,0],"sum_hessian":[5.2506415E2,2.5453572E2,2.705284E2,2.4797813E2,6.557575E0,1.9183256E1,2.5134515E2,1.2907468E1,6.275788E0,3.9103236E0,2.4743483E2],"tree_param":{"num_deleted":"0","num_feature":"77","num_nodes":"11","size_leaf_vector":"1"}},{"base_weights":[6.303497E-3,-1.0283182E0,1.0717536E0,-1.14931636E-1,9.241472E-1,1.1375223E0,-8.1289744E-1,1.08047925E-1,2.3163078E-2,1.4604422E-2,1.14946306E-1,-3.391222E-2,-9.9017866E-2],"categories":[],"categories_nodes":[],"categories_segments":[],"categories_sizes":[],"default_left":[0,0,0,0,0,0,0,0,0,0,0,0,0],"id":13,"left_children":[1,3,5,-1,7,9,11,-1,-1,-1,-1,-1,-1],"loss_changes":[5.4160223E2,5.996167E1,3.0965393E1,0E0,1.2478104E0,2.4776611E0,2.6162958E-1,0E0,0E0,0E0,0E0,0E0,0E0],"parents":[2147483647,0,0,1,1,2,2,4,4,5,5,6,6],"right_children":[2,4,6,-1,8,10,12,-1,-1,-1,-1,-1,-1],"split_conditions":[1.0335861E0,8.2E-1,1.011E2,-1.14931636E-1,-1.4429E0,1.71E1,-1.7417475E0,1.08047925E-1,2.3163078E-2,1.4604422E-2,1.14946306E-1,-3.391222E-2,-9.9017866E-2],"split_indices":[34,50,69,0,42,68,24,0,0,0,0,0,0],"split_type":[0,0,0,0,0,0,0,0,0,0,0,0,0],"sum_hessian":[4.8931772E2,2.4822044E2,2.4109727E2,2.3417097E2,1.4049466E1,2.3340173E2,7.695542E0,1.0887129E1,3.1623375E0,3.0345979E0,2.3036714E2,3.0422523E0,4.6532893E0],"tree_param":{"num_deleted":"0","num_feature":"77","num_nodes":"13","size_leaf_vector":"1"}},{"base_weights":[1.4631504E-2,-9.9386245E-1,1.0636643E0,-1.1320662E-1,9.7866446E-1,1.1152983E0,-9.708602E-2,4.3490984E-2,1.0664292E-1,7.177873E-3,1.1323752E-1],"categories":[],"categories_nodes":[],"categories_segments":[],"categories_sizes":[],"default_left":[0,0,0,0,0,0,0,0,0,0,0],"id":14,"left_children":[1,3,5,-1,7,9,-1,-1,-1,-1,-1],"loss_changes":[4.7875235E2,6.400882E1,2.4402283E1,0E0,1.3020515E-1,3.6629639E0,0E0,0E0,0E0,0E0,0E0],"parents":[2147483647,0,0,1,1,2,2,4,4,5,5],"right_children":[2,4,6,-1,8,10,-1,-1,-1,-1,-1],"split_conditions":[1.0335861E0,8.2E-1,1.013E2,-1.1320662E-1,7.9422E0,-1.3E-1,-9.708602E-2,4.3490984E-2,1.0664292E-1,7.177873E-3,1.1323752E-1],"split_indices":[34,50,69,0,48,56,0,0,0,0,0],"split_type":[0,0,0,0,0,0,0,0,0,0,0],"sum_hessian":[4.5052536E2,2.2967918E2,2.2084619E2,2.150861E2,1.4593076E1,2.1586865E2,4.9775405E0,3.0140502E0,1.1579026E1,3.6538403E0,2.1221481E2],"tree_param":{"num_deleted":"0","num_feature":"77","num_nodes":"11","size_leaf_vector":"1"}},{"base_weights":[2.2888917E-2,-9.604304E-1,1.0815668E0,-1.1193272E-1,9.743976E-1,1.114802E-1,-2.2443315E-2,1.0673531E-1,3.9498784E-2],"categories":[],"categories_nodes":[],"categories_segments":[],"categories_sizes":[],"default_left":[0,0,0,0,0,0,0,0,0],"id":15,"left_children":[1,3,5,-1,7,-1,-1,-1,-1],"loss_changes":[4.372148E2,6.803465E1,9.119125E0,0E0,3.4824562E-1,0E0,0E0,0E0,0E0],"parents":[2147483647,0,0,1,1,2,2,4,4],"right_children":[2,4,6,-1,8,-1,-1,-1,-1],"split_conditions":[1.0809757E0,1.8457E0,1.003E2,-1.1193272E-1,-1.4857E0,1.114802E-1,-2.2443315E-2,1.0673531E-1,3.9498784E-2],"split_indices":[34,41,69,0,42,0,0,0,0],"split_type":[0,0,0,0,0,0,0,0,0],"sum_hessian":[4.1797812E2,2.167008E2,2.0127731E2,2.0069223E2,1.600858E1,1.9649974E2,4.777579E0,1.2920928E1,3.0876517E0],"tree_param":{"num_deleted":"0","num_feature":"77","num_nodes":"9","size_leaf_vector":"1"}},{"base_weights":[-4.076947E-3,-9.100892E-1,1.0854808E0,-1.10759035E-1,9.872788E-1,1.10073544E-1,2.9097592E-2,4.0065344E-2,1.0639125E-1],"categories":[],"categories_nodes":[],"categories_segments":[],"categories_sizes":[],"default_left":[0,0,0,0,0,0,0,0,0],"id":16,"left_children":[1,3,5,-1,7,-1,-1,-1,-1],"loss_changes":[3.6691925E2,7.717557E1,1.5853119E0,0E0,3.0927658E-1,0E0,0E0,0E0,0E0],"parents":[2147483647,0,0,1,1,2,2,4,4],"right_children":[2,4,6,-1,8,-1,-1,-1,-1],"split_conditions":[3.32E0,8.2E-1,-5.1E-1,-1.10759035E-1,7.8320825E-1,1.10073544E-1,2.9097592E-2,4.0065344E-2,1.0639125E-1],"split_indices":[53,50,54,0,11,0,0,0,0],"split_type":[0,0,0,0,0,0,0,0,0],"sum_hessian":[3.697116E2,2.0199823E2,1.6771336E2,1.8337888E2,1.8619356E1,1.6405223E2,3.6611426E0,3.0216794E0,1.5597676E1],"tree_param":{"num_deleted":"0","num_feature":"77","num_nodes":"9","size_leaf_vector":"1"}},{"base_weights":[1.4092849E-2,-9.680513E-1,1.0077629E0,-1.0869043E0,1.019836E-1,1.0614951E0,-9.02357E-2,-4.9864337E-2,-1.0947847E-1,5.748208E-3,1.08787455E-1],"categories":[],"categories_nodes":[],"categories_segments":[],"categories_sizes":[],"default_left":[0,0,0,0,0,0,0,0,0,0,0],"id":17,"left_children":[1,3,5,7,-1,9,-1,-1,-1,-1,-1],"loss_changes":[3.372758E2,4.2168854E1,1.860965E1,5.7296753E-2,0E0,4.262924E0,0E0,0E0,0E0,0E0,0E0],"parents":[2147483647,0,0,1,1,2,2,3,3,5,5],"right_children":[2,4,6,8,-1,10,-1,-1,-1,-1,-1],"split_conditions":[1.0335861E0,2.2943E0,1.013E2,-1.5314E0,1.019836E-1,3E-2,-9.02357E-2,-4.9864337E-2,-1.0947847E-1,5.748208E-3,1.08787455E-1],"split_indices":[34,41,69,42,0,56,0,0,0,0,0],"split_type":[0,0,0,0,0,0,0,0,0,0,0],"sum_hessian":[3.4359152E2,1.7276027E2,1.7083124E2,1.6348904E2,9.271239E0,1.6664023E2,4.191003E0,3.178592E0,1.6031044E2,4.444669E0,1.6219557E2],"tree_param":{"num_deleted":"0","num_feature":"77","num_nodes":"11","size_leaf_vector":"1"}},{"base_weights":[-4.599017E-3,-9.9520767E-1,9.527765E-1,-1.0838143E-1,9.6162446E-2,1.0413829E0,-6.872132E-1,-1.4241844E-2,1.0729611E0,-9.300888E-2,-1.4797093E-2,4.9368672E-2,1.0813602E-1],"categories":[],"categories_nodes":[],"categories_segments":[],"categories_sizes":[],"default_left":[0,0,0,0,0,0,0,0,0,0,0,0,0],"id":18,"left_children":[1,3,5,-1,-1,7,9,-1,11,-1,-1,-1,-1],"loss_changes":[3.0156122E2,2.8158707E1,2.4240723E1,0E0,0E0,5.995926E0,9.110923E-1,0E0,3.855896E-2,0E0,0E0,0E0,0E0],"parents":[2147483647,0,0,1,1,2,2,5,5,6,6,8,8],"right_children":[2,4,6,-1,-1,8,10,-1,12,-1,-1,-1,-1],"split_conditions":[1.0010941E0,2.2943E0,1.011E2,-1.0838143E-1,9.6162446E-2,0E0,1.4558666E0,-1.4241844E-2,-7.7065927E-1,-9.300888E-2,-1.4797093E-2,4.9368672E-2,1.0813602E-1],"split_indices":[34,41,69,0,0,56,3,0,27,0,0,0,0],"split_type":[0,0,0,0,0,0,0,0,0,0,0,0,0],"sum_hessian":[3.159693E2,1.5532129E2,1.60648E2,1.4906862E2,6.252679E0,1.5281746E2,7.830536E0,3.797052E0,1.490204E2,4.7712874E0,3.0592484E0,3.1543546E0,1.4586604E2],"tree_param":{"num_deleted":"0","num_feature":"77","num_nodes":"13","size_leaf_vector":"1"}},{"base_weights":[2.0805132E-3,-8.6574626E-1,1.0489277E0,-1.0612425E0,1.0338136E-1,1.5401569E-2,1.0701714E-1,-1.4212354E-2,-1.0832105E-1],"categories":[],"categories_nodes":[],"categories_segments":[],"categories_sizes":[],"default_left":[0,0,0,0,0,0,0,0,0],"id":19,"left_children":[1,3,5,7,-1,-1,-1,-1,-1],"loss_changes":[2.6234207E2,5.9708397E1,2.201828E0,2.6237488E0,0E0,0E0,0E0,0E0,0E0],"parents":[2147483647,0,0,1,1,2,2,3,3],"right_children":[2,4,6,8,-1,-1,-1,-1,-1],"split_conditions":[1.0997707E0,2.2943E0,5.7E-1,-1.5314E0,1.0338136E-1,1.5401569E-2,1.0701714E-1,-1.4212354E-2,-1.0832105E-1],"split_indices":[34,41,56,42,0,0,0,0,0],"split_type":[0,0,0,0,0,0,0,0,0],"sum_hessian":[2.8674994E2,1.5682277E2,1.2992717E2,1.4263702E2,1.4185746E1,3.3131757E0,1.26614E2,3.610239E0,1.3902678E2],"tree_param":{"num_deleted":"0","num_feature":"77","num_nodes":"9","size_leaf_vector":"1"}},{"base_weights":[1.773164E-2,-8.797962E-1,1.0476995E0,-1.0611812E0,1.0031698E-1,1.0630794E-1,3.5023935E-2,-3.3079386E-2,-1.07487254E-1],"categories":[],"categories_nodes":[],"categories_segments":[],"categories_sizes":[],"default_left":[0,0,0,0,0,0,0,0,0],"id":20,"left_children":[1,3,5,7,-1,-1,-1,-1,-1],"loss_changes":[2.4897072E2,5.0206055E1,8.319702E-1,8.214569E-1,0E0,0E0,0E0,0E0,0E0],"parents":[2147483647,0,0,1,1,2,2,3,3],"right_children":[2,4,6,8,-1,-1,-1,-1,-1],"split_conditions":[3.32E0,2.2943E0,9.091E-1,-7.85E0,1.0031698E-1,1.0630794E-1,3.5023935E-2,-3.3079386E-2,-1.07487254E-1],"split_indices":[53,41,52,39,0,0,0,0,0],"split_type":[0,0,0,0,0,0,0,0,0],"sum_hessian":[2.6730972E2,1.4286444E2,1.2444529E2,1.3075813E2,1.2106314E1,1.21107124E2,3.3381705E0,3.003354E0,1.27754776E2],"tree_param":{"num_deleted":"0","num_feature":"77","num_nodes":"9","size_leaf_vector":"1"}},{"base_weights":[-1.3606961E-2,-9.671019E-1,9.5103985E-1,-1.0446458E0,8.7304495E-2,1.0153567E0,-8.4676534E-2,-2.4720855E-2,-1.06308065E-1,-1.2890208E-2,1.0489067E-1],"categories":[],"categories_nodes":[],"categories_segments":[],"categories_sizes":[],"default_left":[0,0,0,0,0,0,0,0,0,0,0],"id":21,"left_children":[1,3,5,7,-1,9,-1,-1,-1,-1,-1],"loss_changes":[2.2089685E2,1.8169678E1,1.4675407E1,1.3179932E0,0E0,4.6698227E0,0E0,0E0,0E0,0E0,0E0],"parents":[2147483647,0,0,1,1,2,2,3,3,5,5],"right_children":[2,4,6,8,-1,10,-1,-1,-1,-1,-1],"split_conditions":[1.0335861E0,2.47333E1,1.013E2,-1.5314E0,8.7304495E-2,3E-2,-8.4676534E-2,-2.4720855E-2,-1.06308065E-1,-1.2890208E-2,1.0489067E-1],"split_indices":[34,47,69,42,0,56,0,0,0,0,0],"split_type":[0,0,0,0,0,0,0,0,0,0,0],"sum_hessian":[2.381595E2,1.1982292E2,1.1833657E2,1.1544472E2,4.378205E0,1.14723175E2,3.613395E0,3.0566764E0,1.1238804E2,3.1020427E0,1.1162113E2],"tree_param":{"num_deleted":"0","num_feature":"77","num_nodes":"11","size_leaf_vector":"1"}},{"base_weights":[2.5290316E-2,-8.53496E-1,1.028682E0,-1.0471099E-1,9.265819E-2,3.626143E-2,1.0477457E-1],"categories":[],"categories_nodes":[],"categories_segments":[],"categories_sizes":[],"default_left":[0,0,0,0,0,0,0],"id":22,"left_children":[1,3,5,-1,-1,-1,-1],"loss_changes":[1.9798781E2,4.2220108E1,8.106308E-1,0E0,0E0,0E0,0E0],"parents":[2147483647,0,0,1,1,2,2],"right_children":[2,4,6,-1,-1,-1,-1],"split_conditions":[1.0997707E0,5.4E-1,3.576E1,-1.0471099E-1,9.265819E-2,3.626143E-2,1.0477457E-1],"split_indices":[34,44,64,0,0,0,0],"split_type":[0,0,0,0,0,0,0],"sum_hessian":[2.2251976E2,1.186521E2,1.0386767E2,1.07434685E2,1.1217413E1,3.593152E0,1.0027451E2],"tree_param":{"num_deleted":"0","num_feature":"77","num_nodes":"7","size_leaf_vector":"1"}},{"base_weights":[-1.1560555E-2,-8.59111E-1,1.0202922E0,-1.0363346E0,9.655146E-2,1.04070626E-1,3.3782646E-2,-1.0533222E-1,-3.5605613E-2],"categories":[],"categories_nodes":[],"categories_segments":[],"categories_sizes":[],"default_left":[0,0,0,0,0,0,0,0,0],"id":23,"left_children":[1,3,5,7,-1,-1,-1,-1,-1],"loss_changes":[1.7766206E2,3.7092308E1,7.8635406E-1,6.6558075E-1,0E0,0E0,0E0,0E0,0E0],"parents":[2147483647,0,0,1,1,2,2,3,3],"right_children":[2,4,6,8,-1,-1,-1,-1,-1],"split_conditions":[1.032E2,2.2943E0,-6.2E-1,1.9E1,9.655146E-2,1.04070626E-1,3.3782646E-2,-1.0533222E-1,-3.5605613E-2],"split_indices":[71,41,54,62,0,0,0,0,0],"split_type":[0,0,0,0,0,0,0,0,0],"sum_hessian":[2.0116364E2,1.10590416E2,9.057321E1,1.0124359E2,9.34683E0,8.72907E1,3.2825093E0,9.809856E1,3.145029E0],"tree_param":{"num_deleted":"0","num_feature":"77","num_nodes":"9","size_leaf_vector":"1"}},{"base_weights":[1.1389547E-2,-9.778963E-1,8.753005E-1,-1.03333436E-1,3.6253136E-2,1.0078746E0,-2.4122864E-1,1.0294968E-1,3.1918064E-2,-9.4682686E-2,7.662325E-2],"categories":[],"categories_nodes":[],"categories_segments":[],"categories_sizes":[],"default_left":[0,0,0,0,0,0,0,0,0,0,0],"id":24,"left_children":[1,3,5,-1,-1,7,9,-1,-1,-1,-1],"loss_changes":[1.5911646E2,6.88797E0,1.503907E1,0E0,0E0,8.6421204E-1,8.762681E0,0E0,0E0,0E0,0E0],"parents":[2147483647,0,0,1,1,2,2,5,5,6,6],"right_children":[2,4,6,-1,-1,8,10,-1,-1,-1,-1],"split_conditions":[9.701339E-1,1.289E1,9.97E1,-1.03333436E-1,3.6253136E-2,-1.6E0,1.8457E0,1.0294968E-1,3.1918064E-2,-9.4682686E-2,7.662325E-2],"split_indices":[34,35,69,0,0,57,41,0,0,0,0],"split_type":[0,0,0,0,0,0,0,0,0,0,0],"sum_hessian":[1.8418674E2,8.574748E1,9.8439255E1,8.263358E1,3.1138976E0,8.815841E1,1.0280845E1,8.485426E1,3.304144E0,6.1400013E0,4.140844E0],"tree_param":{"num_deleted":"0","num_feature":"77","num_nodes":"11","size_leaf_vector":"1"}},{"base_weights":[5.1147784E-3,-8.242925E-1,1.009104E0,-1.0441667E-1,9.5766686E-2,1.02849916E-1,3.7284542E-2],"categories":[],"categories_nodes":[],"categories_segments":[],"categories_sizes":[],"default_left":[0,0,0,0,0,0,0],"id":25,"left_children":[1,3,5,-1,-1,-1,-1],"loss_changes":[1.43605E2,3.798516E1,4.3965912E-1,0E0,0E0,0E0,0E0],"parents":[2147483647,0,0,1,1,2,2],"right_children":[2,4,6,-1,-1,-1,-1],"split_conditions":[3.32E0,2.2943E0,-5.7E-1,-1.0441667E-1,9.5766686E-2,1.02849916E-1,3.7284542E-2],"split_indices":[53,41,54,0,0,0,0],"split_type":[0,0,0,0,0,0,0],"sum_hessian":[1.7043268E2,9.337438E1,7.705829E1,8.353699E1,9.837397E0,7.4028046E1,3.0302434E0],"tree_param":{"num_deleted":"0","num_feature":"77","num_nodes":"7","size_leaf_vector":"1"}},{"base_weights":[2.2756295E-2,-7.961811E-1,9.9253327E-1,-1.02753416E-1,8.3711706E-2,1.0208888E-1,2.772448E-2],"categories":[],"categories_nodes":[],"categories_segments":[],"categories_sizes":[],"default_left":[0,0,0,0,0,0,0],"id":26,"left_children":[1,3,5,-1,-1,-1,-1],"loss_changes":[1.2416573E2,3.2888386E1,1.0396576E0,0E0,0E0,0E0,0E0],"parents":[2147483647,0,0,1,1,2,2],"right_children":[2,4,6,-1,-1,-1,-1],"split_conditions":[3.32E0,8.2E-1,9.091E-1,-1.02753416E-1,8.3711706E-2,1.0208888E-1,2.772448E-2],"split_indices":[53,50,52,0,0,0,0],"split_type":[0,0,0,0,0,0,0],"sum_hessian":[1.5432353E2,8.370985E1,7.0613686E1,7.37022E1,1.0007644E1,6.737572E1,3.2379642E0],"tree_param":{"num_deleted":"0","num_feature":"77","num_nodes":"7","size_leaf_vector":"1"}},{"base_weights":[-9.0170087E-4,-8.0341244E-1,9.7755224E-1,-1.0122244E0,9.278459E-2,1.0087585E-1,2.301479E-2,-1.0358337E-1,-3.487087E-2],"categories":[],"categories_nodes":[],"categories_segments":[],"categories_sizes":[],"default_left":[0,0,0,0,0,0,0,0,0],"id":27,"left_children":[1,3,5,7,-1,-1,-1,-1,-1],"loss_changes":[1.1344093E2,2.966544E1,1.1612206E0,6.1911774E-1,0E0,0E0,0E0,0E0,0E0],"parents":[2147483647,0,0,1,1,2,2,3,3],"right_children":[2,4,6,8,-1,-1,-1,-1,-1],"split_conditions":[1.032E2,2.2943E0,-6.1E-1,1.6794391E0,9.278459E-2,1.0087585E-1,2.301479E-2,-1.0358337E-1,-3.487087E-2],"split_indices":[71,41,54,12,0,0,0,0,0],"split_type":[0,0,0,0,0,0,0,0,0],"sum_hessian":[1.4249226E2,7.843904E1,6.405322E1,7.0418724E1,8.020316E0,6.1021915E1,3.031308E0,6.731179E1,3.1069345E0],"tree_param":{"num_deleted":"0","num_feature":"77","num_nodes":"9","size_leaf_vector":"1"}},{"base_weights":[5.208852E-3,-8.502791E-1,9.368451E-1,-1.01823054E-1,7.610916E-2,1.0041858E-1,-2.3402056E-2],"categories":[],"categories_nodes":[],"categories_segments":[],"categories_sizes":[],"default_left":[0,0,0,0,0,0,0],"id":28,"left_children":[1,3,5,-1,-1,-1,-1],"loss_changes":[1.0239157E2,1.8909737E1,5.1647606E0,0E0,0E0,0E0,0E0],"parents":[2147483647,0,0,1,1,2,2],"right_children":[2,4,6,-1,-1,-1,-1],"split_conditions":[1.27E0,8.2E-1,-6.1E-1,-1.01823054E-1,7.610916E-2,1.0041858E-1,-2.3402056E-2],"split_indices":[56,50,54,0,0,0,0],"split_type":[0,0,0,0,0,0,0],"sum_hessian":[1.2646032E2,6.5913925E1,6.054639E1,6.0081818E1,5.83211E0,5.7468906E1,3.0774815E0],"tree_param":{"num_deleted":"0","num_feature":"77","num_nodes":"7","size_leaf_vector":"1"}},{"base_weights":[8.84177E-3,-9.052135E-1,8.441859E-1,-1.0222832E-1,7.831727E-2,-2.0985967E-1,9.7980946E-1,-8.7176256E-2,6.0881782E-2,3.431081E-2,1.0098135E-1],"categories":[],"categories_nodes":[],"categories_segments":[],"categories_sizes":[],"default_left":[0,0,0,0,0,0,0,0,0,0,0],"id":29,"left_children":[1,3,5,-1,-1,7,9,-1,-1,-1,-1],"loss_changes":[9.23825E1,1.2234348E1,9.327721E0,0E0,0E0,4.866509E0,5.941467E-1,0E0,0E0,0E0,0E0],"parents":[2147483647,0,0,1,1,2,2,5,5,6,6],"right_children":[2,4,6,-1,-1,8,10,-1,-1,-1,-1],"split_conditions":[9.855234E-1,2.2943E0,3.7E-1,-1.0222832E-1,7.831727E-2,1.6743E0,3.571E1,-8.7176256E-2,6.0881782E-2,3.431081E-2,1.0098135E-1],"split_indices":[34,41,56,0,0,41,64,0,0,0,0],"split_type":[0,0,0,0,0,0,0,0,0,0,0],"sum_hessian":[1.18997856E2,5.6724777E1,6.2273075E1,5.3470943E1,3.2538316E0,6.9527392E0,5.5320335E1,3.87616E0,3.0765796E0,3.199224E0,5.2121113E1],"tree_param":{"num_deleted":"0","num_feature":"77","num_nodes":"11","size_leaf_vector":"1"}},{"base_weights":[-2.650491E-3,-9.243322E-1,8.397441E-1,-1.0031904E-1,2.2325112E-2,-1.5162075E-1,9.922583E-2,-8.7802455E-2,7.800674E-2],"categories":[],"categories_nodes":[],"categories_segments":[],"categories_sizes":[],"default_left":[0,0,0,0,0,0,0,0,0],"id":30,"left_children":[1,3,5,-1,-1,7,-1,-1,-1],"loss_changes":[8.473212E1,5.0225677E0,8.846352E0,0E0,0E0,6.3622437E0,0E0,0E0,0E0],"parents":[2147483647,0,0,1,1,2,2,5,5],"right_children":[2,4,6,-1,-1,8,-1,-1,-1],"split_conditions":[9.855234E-1,1.6743E0,5.3E-1,-1.0031904E-1,2.2325112E-2,1.923E1,9.922583E-2,-8.7802455E-2,7.800674E-2],"split_indices":[34,41,56,0,0,38,0,0,0],"split_type":[0,0,0,0,0,0,0,0,0],"sum_hessian":[1.0712124E2,5.1163555E1,5.5957684E1,4.8073093E1,3.0904627E0,7.3742347E0,4.8583447E1,4.2362857E0,3.1379495E0],"tree_param":{"num_deleted":"0","num_feature":"77","num_nodes":"9","size_leaf_vector":"1"}},{"base_weights":[4.5534377E-3,-8.056837E-1,9.548801E-1,-1.01375714E-1,8.616156E-2,9.939342E-2,3.0831445E-2],"categories":[],"categories_nodes":[],"categories_segments":[],"categories_sizes":[],"default_left":[0,0,0,0,0,0,0],"id":31,"left_children":[1,3,5,-1,-1,-1,-1],"loss_changes":[7.755518E1,1.972794E1,7.3496246E-1,0E0,0E0,0E0,0E0],"parents":[2147483647,0,0,1,1,2,2],"right_children":[2,4,6,-1,-1,-1,-1],"split_conditions":[3.32E0,2.2943E0,-3.5E-1,-1.01375714E-1,8.616156E-2,9.939342E-2,3.0831445E-2],"split_indices":[53,41,55,0,0,0,0],"split_type":[0,0,0,0,0,0,0],"sum_hessian":[9.87038E1,5.3304226E1,4.5399567E1,4.779191E1,5.512319E0,4.216103E1,3.2385368E0],"tree_param":{"num_deleted":"0","num_feature":"77","num_nodes":"7","size_leaf_vector":"1"}},{"base_weights":[-1.788039E-3,-7.5201875E-1,9.731563E-2,-1.0013868E-1,7.547083E-2],"categories":[],"categories_nodes":[],"categories_segments":[],"categories_sizes":[],"default_left":[0,0,0,0,0],"id":32,"left_children":[1,3,-1,-1,-1],"loss_changes":[6.5888985E1,1.9935701E1,0E0,0E0,0E0],"parents":[2147483647,0,0,1,1],"right_children":[2,4,-1,-1,-1],"split_conditions":[1.04E2,1.8457E0,9.731563E-2,-1.0013868E-1,7.547083E-2],"split_indices":[71,41,0,0,0],"split_type":[0,0,0,0,0],"sum_hessian":[8.81117E1,4.9981556E1,3.8130146E1,4.322881E1,6.752745E0],"tree_param":{"num_deleted":"0","num_feature":"77","num_nodes":"5","size_leaf_vector":"1"}},{"base_weights":[3.3576585E-2,-8.89616E-1,8.152373E-1,-9.88661E-2,1.917164E-2,-3.934021E-2,9.442532E-1,2.6276356E-2,9.897956E-2],"categories":[],"categories_nodes":[],"categories_segments":[],"categories_sizes":[],"default_left":[0,0,0,0,0,0,0,0,0],"id":33,"left_children":[1,3,5,-1,-1,-1,7,-1,-1],"loss_changes":[6.17206E1,4.4652576E0,7.655197E0,0E0,0E0,0E0,9.2611694E-1,0E0,0E0],"parents":[2147483647,0,0,1,1,2,2,6,6],"right_children":[2,4,6,-1,-1,-1,8,-1,-1],"split_conditions":[9.701339E-1,9.01E0,3.544E1,-9.88661E-2,1.917164E-2,-3.934021E-2,3.7E-1,2.6276356E-2,9.897956E-2],"split_indices":[34,38,64,0,0,0,56,0,0],"split_type":[0,0,0,0,0,0,0,0,0],"sum_hessian":[8.353549E1,3.8178333E1,4.535716E1,3.5138035E1,3.0402987E0,4.1022587E0,4.12549E1,3.145878E0,3.8109024E1],"tree_param":{"num_deleted":"0","num_feature":"77","num_nodes":"9","size_leaf_vector":"1"}},{"base_weights":[5.4186783E-3,-7.5751686E-1,9.709571E-2,-9.9610575E-2,6.778724E-2],"categories":[],"categories_nodes":[],"categories_segments":[],"categories_sizes":[],"default_left":[0,0,0,0,0],"id":34,"left_children":[1,3,-1,-1,-1],"loss_changes":[5.6489777E1,1.5353363E1,0E0,0E0,0E0],"parents":[2147483647,0,0,1,1],"right_children":[2,4,-1,-1,-1],"split_conditions":[2E0,8.2E-1,9.709571E-2,-9.9610575E-2,6.778724E-2],"split_indices":[32,50,0,0,0],"split_type":[0,0,0,0,0],"sum_hessian":[7.4657906E1,4.1766956E1,3.289095E1,3.613615E1,5.630806E0],"tree_param":{"num_deleted":"0","num_feature":"77","num_nodes":"5","size_leaf_vector":"1"}},{"base_weights":[4.129797E-2,-8.863664E-1,7.981446E-1,-9.792089E-2,-0E0,9.702759E-2,-1.18497275E-1,-7.724133E-2,5.426181E-2],"categories":[],"categories_nodes":[],"categories_segments":[],"categories_sizes":[],"default_left":[0,0,0,0,0,0,0,0,0],"id":35,"left_children":[1,3,5,-1,-1,-1,7,-1,-1],"loss_changes":[5.1363583E1,2.761406E0,6.5627995E0,0E0,0E0,0E0,3.5437946E0,0E0,0E0],"parents":[2147483647,0,0,1,1,2,2,6,6],"right_children":[2,4,6,-1,-1,-1,8,-1,-1],"split_conditions":[9.701339E-1,6.7925E0,9.91E1,-9.792089E-2,-0E0,9.702759E-2,1.8457E0,-7.724133E-2,5.426181E-2],"split_indices":[34,49,69,0,0,0,41,0,0],"split_type":[0,0,0,0,0,0,0,0,0],"sum_hessian":[7.1162056E1,3.1836681E1,3.9325375E1,2.878505E1,3.0516326E0,3.3150753E1,6.174623E0,3.095622E0,3.079001E0],"tree_param":{"num_deleted":"0","num_feature":"77","num_nodes":"9","size_leaf_vector":"1"}},{"base_weights":[3.2661397E-3,-7.532869E-1,9.525923E-2,-9.672979E-2,6.977218E-2],"categories":[],"categories_nodes":[],"categories_segments":[],"categories_sizes":[],"default_left":[0,0,0,0,0],"id":36,"left_children":[1,3,-1,-1,-1],"loss_changes":[4.6477425E1,1.1862673E1,0E0,0E0,0E0],"parents":[2147483647,0,0,1,1],"right_children":[2,4,-1,-1,-1],"split_conditions":[1.5E0,2.2943E0,9.525923E-2,-9.672979E-2,6.977218E-2],"split_indices":[56,41,0,0,0],"split_type":[0,0,0,0,0],"sum_hessian":[6.2685505E1,3.4940945E1,2.7744562E1,3.080043E1,4.1405134E0],"tree_param":{"num_deleted":"0","num_feature":"77","num_nodes":"5","size_leaf_vector":"1"}},{"base_weights":[6.8252655E-3,-7.56211E-1,9.252151E-1,-9.885639E-2,7.908209E-2,9.685082E-2,4.0976606E-2],"categories":[],"categories_nodes":[],"categories_segments":[],"categories_sizes":[],"default_left":[0,0,0,0,0,0,0],"id":37,"left_children":[1,3,5,-1,-1,-1,-1],"loss_changes":[4.2058723E1,1.2560877E1,7.411194E-2,0E0,0E0,0E0,0E0],"parents":[2147483647,0,0,1,1,2,2],"right_children":[2,4,6,-1,-1,-1,-1],"split_conditions":[1.032E2,2.02281E1,-5.6774132E-2,-9.885639E-2,7.908209E-2,9.685082E-2,4.0976606E-2],"split_indices":[71,47,23,0,0,0,0],"split_type":[0,0,0,0,0,0,0],"sum_hessian":[5.799578E1,3.17141E1,2.6281681E1,2.7942911E1,3.7711892E0,2.3255468E1,3.0262127E0],"tree_param":{"num_deleted":"0","num_feature":"77","num_nodes":"7","size_leaf_vector":"1"}},{"base_weights":[4.2060576E-3,-7.045672E-1,9.4528206E-2,-9.776446E-2,7.118511E-2],"categories":[],"categories_nodes":[],"categories_segments":[],"categories_sizes":[],"default_left":[0,0,0,0,0],"id":38,"left_children":[1,3,-1,-1,-1],"loss_changes":[3.6622852E1,1.2806157E1,0E0,0E0,0E0],"parents":[2147483647,0,0,1,1],"right_children":[2,4,-1,-1,-1],"split_conditions":[1.57E0,2.2943E0,9.4528206E-2,-9.776446E-2,7.118511E-2],"split_indices":[56,41,0,0,0],"split_type":[0,0,0,0,0],"sum_hessian":[5.2871445E1,3.0240677E1,2.263077E1,2.5671696E1,4.56898E0],"tree_param":{"num_deleted":"0","num_feature":"77","num_nodes":"5","size_leaf_vector":"1"}},{"base_weights":[1.39461635E-2,-8.973311E-1,7.5110114E-1,-9.523244E-2,-3.9108697E-2,-1.0477512E-2,9.280327E-2],"categories":[],"categories_nodes":[],"categories_segments":[],"categories_sizes":[],"default_left":[0,0,0,0,0,0,0],"id":39,"left_children":[1,3,5,-1,-1,-1,-1],"loss_changes":[3.3041977E1,1.0436249E-1,4.3066883E0,0E0,0E0,0E0,0E0],"parents":[2147483647,0,0,1,1,2,2],"right_children":[2,4,6,-1,-1,-1,-1],"split_conditions":[9.701339E-1,7.657E-1,5.7E-1,-9.523244E-2,-3.9108697E-2,-1.0477512E-2,9.280327E-2],"split_indices":[34,41,56,0,0,0,0],"split_type":[0,0,0,0,0,0,0],"sum_hessian":[4.720616E1,2.0952076E1,2.6254084E1,1.7926079E1,3.0259974E0,4.4706607E0,2.1783424E1],"tree_param":{"num_deleted":"0","num_feature":"77","num_nodes":"7","size_leaf_vector":"1"}},{"base_weights":[1.6325487E-2,-6.828685E-1,9.500438E-2,-9.6724115E-2,7.898941E-2],"categories":[],"categories_nodes":[],"categories_segments":[],"categories_sizes":[],"default_left":[0,0,0,0,0],"id":40,"left_children":[1,3,-1,-1,-1],"loss_changes":[3.0436771E1,1.1916989E1,0E0,0E0,0E0],"parents":[2147483647,0,0,1,1],"right_children":[2,4,-1,-1,-1],"split_conditions":[1.6E0,5.4E-1,9.500438E-2,-9.6724115E-2,7.898941E-2],"split_indices":[56,44,0,0,0],"split_type":[0,0,0,0,0],"sum_hessian":[4.4586716E1,2.5587587E1,1.899913E1,2.179113E1,3.7964573E0],"tree_param":{"num_deleted":"0","num_feature":"77","num_nodes":"5","size_leaf_vector":"1"}},{"base_weights":[2.58753E-2,-7.0476663E-1,9.265511E-2,-9.6957944E-2,7.471159E-2],"categories":[],"categories_nodes":[],"categories_segments":[],"categories_sizes":[],"default_left":[0,0,0,0,0],"id":41,"left_children":[1,3,-1,-1,-1],"loss_changes":[2.7857405E1,9.7096815E0,0E0,0E0,0E0],"parents":[2147483647,0,0,1,1],"right_children":[2,4,-1,-1,-1],"split_conditions":[3.4E0,2.2943E0,9.265511E-2,-9.6957944E-2,7.471159E-2],"split_indices":[53,41,0,0,0],"split_type":[0,0,0,0,0],"sum_hessian":[4.030589E1,2.2312298E1,1.799359E1,1.9209661E1,3.1026351E0],"tree_param":{"num_deleted":"0","num_feature":"77","num_nodes":"5","size_leaf_vector":"1"}},{"base_weights":[2.8017106E-2,-6.42623E-1,9.433337E-2,-9.450549E-2,5.842935E-2],"categories":[],"categories_nodes":[],"categories_segments":[],"categories_sizes":[],"default_left":[0,0,0,0,0],"id":42,"left_children":[1,3,-1,-1,-1],"loss_changes":[2.4824898E1,9.224223E0,0E0,0E0,0E0],"parents":[2147483647,0,0,1,1],"right_children":[2,4,-1,-1,-1],"split_conditions":[1.73E0,1.698E1,9.433337E-2,-9.450549E-2,5.842935E-2],"split_indices":[56,38,0,0,0],"split_type":[0,0,0,0,0],"sum_hessian":[3.84049E1,2.2273832E1,1.6131065E1,1.8118824E1,4.155009E0],"tree_param":{"num_deleted":"0","num_feature":"77","num_nodes":"5","size_leaf_vector":"1"}},{"base_weights":[2.7464693E-3,-6.9449174E-1,8.940815E-2,-9.6263014E-2,5.22438E-2],"categories":[],"categories_nodes":[],"categories_segments":[],"categories_sizes":[],"default_left":[0,0,0,0,0],"id":43,"left_children":[1,3,-1,-1,-1],"loss_changes":[2.2815596E1,7.2427616E0,0E0,0E0,0E0],"parents":[2147483647,0,0,1,1],"right_children":[2,4,-1,-1,-1],"split_conditions":[3.4E0,1.62322E1,8.940815E-2,-9.6263014E-2,5.22438E-2],"split_indices":[53,47,0,0,0],"split_type":[0,0,0,0,0],"sum_hessian":[3.468089E1,1.9520115E1,1.5160773E1,1.6234211E1,3.285905E0],"tree_param":{"num_deleted":"0","num_feature":"77","num_nodes":"5","size_leaf_vector":"1"}},{"base_weights":[-4.512784E-3,-8.1411666E-1,7.43389E-1,-1.7930435E-2,-9.4103694E-2,9.247917E-2,-3.9556785E-3],"categories":[],"categories_nodes":[],"categories_segments":[],"categories_sizes":[],"default_left":[0,0,0,0,0,0,0],"id":44,"left_children":[1,3,5,-1,-1,-1,-1],"loss_changes":[1.9997196E1,1.001482E0,2.5537777E0,0E0,0E0,0E0,0E0],"parents":[2147483647,0,0,1,1,2,2],"right_children":[2,4,6,-1,-1,-1,-1],"split_conditions":[1.0010941E0,-6.086E-1,9.27E1,-1.7930435E-2,-9.4103694E-2,9.247917E-2,-3.9556785E-3],"split_indices":[34,43,63,0,0,0,0],"split_type":[0,0,0,0,0,0,0],"sum_hessian":[3.1014507E1,1.491461E1,1.6099895E1,3.01837E0,1.189624E1,1.30279665E1,3.07193E0],"tree_param":{"num_deleted":"0","num_feature":"77","num_nodes":"7","size_leaf_vector":"1"}},{"base_weights":[4.2207614E-2,-6.2061465E-1,9.207418E-2,-9.067961E-2,5.7460506E-2],"categories":[],"categories_nodes":[],"categories_segments":[],"categories_sizes":[],"default_left":[0,0,0,0,0],"id":45,"left_children":[1,3,-1,-1,-1],"loss_changes":[1.850956E1,6.732092E0,0E0,0E0,0E0],"parents":[2147483647,0,0,1,1],"right_children":[2,4,-1,-1,-1],"split_conditions":[1.6E0,2.2943E0,9.207418E-2,-9.067961E-2,5.7460506E-2],"split_indices":[56,41,0,0,0],"split_type":[0,0,0,0,0],"sum_hessian":[2.9753479E1,1.7061186E1,1.2692294E1,1.4027455E1,3.0337303E0],"tree_param":{"num_deleted":"0","num_feature":"77","num_nodes":"5","size_leaf_vector":"1"}},{"base_weights":[-2.3985354E-3,-6.3913065E-1,9.0095215E-2,5.1425923E-2,-9.402286E-2],"categories":[],"categories_nodes":[],"categories_segments":[],"categories_sizes":[],"default_left":[0,0,0,0,0],"id":46,"left_children":[1,3,-1,-1,-1],"loss_changes":[1.6852493E1,6.5254292E0,0E0,0E0,0E0],"parents":[2147483647,0,0,1,1],"right_children":[2,4,-1,-1,-1],"split_conditions":[2E0,-1.3657E0,9.0095215E-2,5.1425923E-2,-9.402286E-2],"split_indices":[32,42,0,0,0],"split_type":[0,0,0,0,0],"sum_hessian":[2.7343298E1,1.6274973E1,1.1068324E1,3.153825E0,1.3121148E1],"tree_param":{"num_deleted":"0","num_feature":"77","num_nodes":"5","size_leaf_vector":"1"}},{"base_weights":[-2.295705E-2,-6.918584E-1,8.845555E-2,1.7942188E-2,-9.357511E-2],"categories":[],"categories_nodes":[],"categories_segments":[],"categories_sizes":[],"default_left":[0,0,0,0,0],"id":47,"left_children":[1,3,-1,-1,-1],"loss_changes":[1.57480135E1,3.4303832E0,0E0,0E0,0E0],"parents":[2147483647,0,0,1,1],"right_children":[2,4,-1,-1,-1],"split_conditions":[2.05E1,-9.886E-1,8.845555E-2,1.7942188E-2,-9.357511E-2],"split_indices":[74,42,0,0,0],"split_type":[0,0,0,0,0],"sum_hessian":[2.3966043E1,1.3997047E1,9.968996E0,3.0293493E0,1.0967698E1],"tree_param":{"num_deleted":"0","num_feature":"77","num_nodes":"5","size_leaf_vector":"1"}},{"base_weights":[1.1621362E-2,-5.875257E-1,8.869844E-2,-9.285997E-2,5.2768346E-2],"categories":[],"categories_nodes":[],"categories_segments":[],"categories_sizes":[],"default_left":[0,0,0,0,0],"id":48,"left_children":[1,3,-1,-1,-1],"loss_changes":[1.3264894E1,6.207048E0,0E0,0E0,0E0],"parents":[2147483647,0,0,1,1],"right_children":[2,4,-1,-1,-1],"split_conditions":[2.07E1,8.2E-1,8.869844E-2,-9.285997E-2,5.2768346E-2],"split_indices":[74,50,0,0,0],"split_type":[0,0,0,0,0],"sum_hessian":[2.324122E1,1.3924857E1,9.316364E0,1.0860345E1,3.0645115E0],"tree_param":{"num_deleted":"0","num_feature":"77","num_nodes":"5","size_leaf_vector":"1"}},{"base_weights":[6.969755E-2,-5.5907726E-1,8.467501E-2,-9.001052E-2,4.2682115E-2],"categories":[],"categories_nodes":[],"categories_segments":[],"categories_sizes":[],"default_left":[0,0,0,0,0],"id":49,"left_children":[1,3,-1,-1,-1],"loss_changes":[1.1831948E1,4.9195037E0,0E0,0E0,0E0],"parents":[2147483647,0,0,1,1],"right_children":[2,4,-1,-1,-1],"split_conditions":[3.4E0,4.981E-1,8.467501E-2,-9.001052E-2,4.2682115E-2],"split_indices":[53,50,0,0,0],"split_type":[0,0,0,0,0],"sum_hessian":[2.2188683E1,1.2348421E1,9.840262E0,9.314821E0,3.0335999E0],"tree_param":{"num_deleted":"0","num_feature":"77","num_nodes":"5","size_leaf_vector":"1"}},{"base_weights":[7.627386E-2,-6.944559E-1,7.006501E-1,-8.489204E-2,-2.2159182E-2,8.8408254E-2,1.0331817E-2],"categories":[],"categories_nodes":[],"categories_segments":[],"categories_sizes":[],"default_left":[0,0,0,0,0,0,0],"id":50,"left_children":[1,3,5,-1,-1,-1,-1],"loss_changes":[1.0894009E1,4.4320774E-1,1.181364E0,0E0,0E0,0E0,0E0],"parents":[2147483647,0,0,1,1,2,2],"right_children":[2,4,6,-1,-1,-1,-1],"split_conditions":[9.701339E-1,3.9E0,9.83E1,-8.489204E-2,-2.2159182E-2,8.8408254E-2,1.0331817E-2],"split_indices":[34,35,69,0,0,0,0],"split_type":[0,0,0,0,0,0,0],"sum_hessian":[2.0625666E1,9.109055E0,1.1516612E1,6.107307E0,3.0017471E0,8.315555E0,3.2010567E0],"tree_param":{"num_deleted":"0","num_feature":"77","num_nodes":"7","size_leaf_vector":"1"}},{"base_weights":[-9.89561E-3,-5.887499E-1,8.7116234E-2,2.2025691E-2,-9.115278E-2],"categories":[],"categories_nodes":[],"categories_segments":[],"categories_sizes":[],"default_left":[0,0,0,0,0],"id":51,"left_children":[1,3,-1,-1,-1],"loss_changes":[1.0542761E1,3.5515714E0,0E0,0E0,0E0],"parents":[2147483647,0,0,1,1],"right_children":[2,4,-1,-1,-1],"split_conditions":[1.73E0,-1.02E0,8.7116234E-2,2.2025691E-2,-9.115278E-2],"split_indices":[56,42,0,0,0],"split_type":[0,0,0,0,0],"sum_hessian":[1.8721617E1,1.1567227E1,7.1543894E0,3.301128E0,8.266099E0],"tree_param":{"num_deleted":"0","num_feature":"77","num_nodes":"5","size_leaf_vector":"1"}},{"base_weights":[7.341325E-2,-7.008542E-1,6.6848147E-1,-8.414504E-2,-2.9821888E-2,1.0088208E-2,8.667778E-2],"categories":[],"categories_nodes":[],"categories_segments":[],"categories_sizes":[],"default_left":[0,0,0,0,0,0,0],"id":52,"left_children":[1,3,5,-1,-1,-1,-1],"loss_changes":[9.347153E0,1.3282871E-1,1.1084504E0,0E0,0E0,0E0,0E0],"parents":[2147483647,0,0,1,1,2,2],"right_children":[2,4,6,-1,-1,-1,-1],"split_conditions":[9.701339E-1,4.0581E0,3.604E1,-8.414504E-2,-2.9821888E-2,1.0088208E-2,8.667778E-2],"split_indices":[34,49,64,0,0,0,0],"split_type":[0,0,0,0,0,0,0],"sum_hessian":[1.8277348E1,7.792452E0,1.0484896E1,4.783782E0,3.0086699E0,3.2358131E0,7.2490826E0],"tree_param":{"num_deleted":"0","num_feature":"77","num_nodes":"7","size_leaf_vector":"1"}},{"base_weights":[9.621006E-3,-7.8062445E-2,5.3346837E-1,-1.090656E-2,7.922964E-2],"categories":[],"categories_nodes":[],"categories_segments":[],"categories_sizes":[],"default_left":[0,0,0,0,0],"id":53,"left_children":[1,-1,3,-1,-1],"loss_changes":[7.752508E0,0E0,2.0444658E0,0E0,0E0],"parents":[2147483647,0,0,2,2],"right_children":[2,-1,4,-1,-1],"split_conditions":[9.222109E-1,-7.8062445E-2,2.07E0,-1.090656E-2,7.922964E-2],"split_indices":[34,0,58,0,0],"split_type":[0,0,0,0,0],"sum_hessian":[1.6781052E1,6.418065E0,1.03629875E1,3.030962E0,7.3320255E0],"tree_param":{"num_deleted":"0","num_feature":"77","num_nodes":"5","size_leaf_vector":"1"}},{"base_weights":[2.414652E-2,-5.741136E-1,7.956364E-2,1.00008205E-4,-8.610092E-2],"categories":[],"categories_nodes":[],"categories_segments":[],"categories_sizes":[],"default_left":[0,0,0,0,0],"id":54,"left_children":[1,3,-1,-1,-1],"loss_changes":[8.228347E0,1.7309813E0,0E0,0E0,0E0],"parents":[2147483647,0,0,1,1],"right_children":[2,4,-1,-1,-1],"split_conditions":[3.32E0,-4.829E-1,7.956364E-2,1.00008205E-4,-8.610092E-2],"split_indices":[53,43,0,0,0],"split_type":[0,0,0,0,0],"sum_hessian":[1.57899065E1,8.964504E0,6.8254023E0,3.199237E0,5.765267E0],"tree_param":{"num_deleted":"0","num_feature":"77","num_nodes":"5","size_leaf_vector":"1"}},{"base_weights":[5.0023063E-3,-4.9885923E-1,8.3003394E-2,-8.657026E-2,2.4513246E-2],"categories":[],"categories_nodes":[],"categories_segments":[],"categories_sizes":[],"default_left":[0,0,0,0,0],"id":55,"left_children":[1,3,-1,-1,-1],"loss_changes":[7.2412267E0,3.1935387E0,0E0,0E0,0E0],"parents":[2147483647,0,0,1,1],"right_children":[2,4,-1,-1,-1],"split_conditions":[1.73E0,1.345E1,8.3003394E-2,-8.657026E-2,2.4513246E-2],"split_indices":[56,38,0,0,0],"split_type":[0,0,0,0,0],"sum_hessian":[1.5343543E1,9.6961E0,5.6474433E0,6.474505E0,3.2215953E0],"tree_param":{"num_deleted":"0","num_feature":"77","num_nodes":"5","size_leaf_vector":"1"}},{"base_weights":[1.2123687E-2,-5.6333274E-1,6.5693565E-2,-8.064494E-2,-6.3612163E-3],"categories":[],"categories_nodes":[],"categories_segments":[],"categories_sizes":[],"default_left":[0,0,0,0,0],"id":56,"left_children":[1,3,-1,-1,-1],"loss_changes":[6.0597606E0,8.999026E-1,0E0,0E0,0E0],"parents":[2147483647,0,0,1,1],"right_children":[2,4,-1,-1,-1],"split_conditions":[1.0335861E0,6.486E-1,6.5693565E-2,-8.064494E-2,-6.3612163E-3],"split_indices":[34,41,0,0,0],"split_type":[0,0,0,0,0],"sum_hessian":[1.4308331E1,7.545604E0,6.762727E0,4.5285354E0,3.0170689E0],"tree_param":{"num_deleted":"0","num_feature":"77","num_nodes":"5","size_leaf_vector":"1"}},{"base_weights":[5.975974E-2,-3.9003178E-1,8.08302E-2,-8.70409E-2,5.0127644E-2],"categories":[],"categories_nodes":[],"categories_segments":[],"categories_sizes":[],"default_left":[0,0,0,0,0],"id":57,"left_children":[1,3,-1,-1,-1],"loss_changes":[5.331016E0,4.6774273E0,0E0,0E0,0E0],"parents":[2147483647,0,0,1,1],"right_children":[2,4,-1,-1,-1],"split_conditions":[1.73E0,4.743E-1,8.08302E-2,-8.70409E-2,5.0127644E-2],"split_indices":[56,44,0,0,0],"split_type":[0,0,0,0,0],"sum_hessian":[1.3773102E1,8.819128E0,4.9539733E0,5.818725E0,3.000403E0],"tree_param":{"num_deleted":"0","num_feature":"77","num_nodes":"5","size_leaf_vector":"1"}},{"base_weights":[5.249394E-2,-3.8741004E-1,8.009069E-2,-8.296118E-2,3.551961E-2],"categories":[],"categories_nodes":[],"categories_segments":[],"categories_sizes":[],"default_left":[0,0,0,0,0],"id":58,"left_children":[1,3,-1,-1,-1],"loss_changes":[4.7924237E0,3.3254552E0,0E0,0E0,0E0],"parents":[2147483647,0,0,1,1],"right_children":[2,4,-1,-1,-1],"split_conditions":[1.9E0,1.345E1,8.009069E-2,-8.296118E-2,3.551961E-2],"split_indices":[56,38,0,0,0],"split_type":[0,0,0,0,0],"sum_hessian":[1.2488436E1,8.084972E0,4.4034634E0,5.0784135E0,3.0065587E0],"tree_param":{"num_deleted":"0","num_feature":"77","num_nodes":"5","size_leaf_vector":"1"}},{"base_weights":[3.4368824E-2,-5.8871936E-2,5.6131476E-1,1.500986E-2,7.7520706E-2],"categories":[],"categories_nodes":[],"categories_segments":[],"categories_sizes":[],"default_left":[0,0,0,0,0],"id":59,"left_children":[1,-1,3,-1,-1],"loss_changes":[4.658761E0,0E0,4.7239614E-1,0E0,0E0],"parents":[2147483647,0,0,2,2],"right_children":[2,-1,4,-1,-1],"split_conditions":[9.701339E-1,-5.8871936E-2,4.743E-1,1.500986E-2,7.7520706E-2],"split_indices":[34,0,44,0,0],"split_type":[0,0,0,0,0],"sum_hessian":[1.2190981E1,5.4452424E0,6.745739E0,3.0504346E0,3.6953044E0],"tree_param":{"num_deleted":"0","num_feature":"77","num_nodes":"5","size_leaf_vector":"1"}},{"base_weights":[-1.3917944E-2,-4.5668146E-1,7.537561E-2,-8.058525E-2,1.0788239E-2],"categories":[],"categories_nodes":[],"categories_segments":[],"categories_sizes":[],"default_left":[0,0,0,0,0],"id":60,"left_children":[1,3,-1,-1,-1],"loss_changes":[4.492391E0,1.8324863E0,0E0,0E0,0E0],"parents":[2147483647,0,0,1,1],"right_children":[2,4,-1,-1,-1],"split_conditions":[2E0,3.343E-1,7.537561E-2,-8.058525E-2,1.0788239E-2],"split_indices":[32,44,0,0,0],"split_type":[0,0,0,0,0],"sum_hessian":[1.1291546E1,7.500774E0,3.7907715E0,4.4798303E0,3.0209436E0],"tree_param":{"num_deleted":"0","num_feature":"77","num_nodes":"5","size_leaf_vector":"1"}},{"base_weights":[-2.674185E-2,-5.025246E-1,7.502764E-2,-1.2915923E-3,-7.9456754E-2],"categories":[],"categories_nodes":[],"categories_segments":[],"categories_sizes":[],"default_left":[0,0,0,0,0],"id":61,"left_children":[1,3,-1,-1,-1],"loss_changes":[4.5259223E0,1.0072384E0,0E0,0E0,0E0],"parents":[2147483647,0,0,1,1],"right_children":[2,4,-1,-1,-1],"split_conditions":[1.73E0,-5.143E-1,7.502764E-2,-1.2915923E-3,-7.9456754E-2],"split_indices":[56,43,0,0,0],"split_type":[0,0,0,0,0],"sum_hessian":[1.0289577E1,6.6807756E0,3.6088014E0,3.0141714E0,3.666604E0],"tree_param":{"num_deleted":"0","num_feature":"77","num_nodes":"5","size_leaf_vector":"1"}},{"base_weights":[2.6820455E-2,-3.7967163E-1,7.5631134E-2,-7.768202E-2,1.6355118E-2],"categories":[],"categories_nodes":[],"categories_segments":[],"categories_sizes":[],"default_left":[0,0,0,0,0],"id":62,"left_children":[1,3,-1,-1,-1],"loss_changes":[3.6639874E0,1.8730968E0,0E0,0E0,0E0],"parents":[2147483647,0,0,1,1],"right_children":[2,4,-1,-1,-1],"split_conditions":[1.9E0,7.53E0,7.5631134E-2,-7.768202E-2,1.6355118E-2],"split_indices":[56,35,0,0,0],"split_type":[0,0,0,0,0],"sum_hessian":[1.0260742E1,6.8090253E0,3.4517164E0,3.79129E0,3.0177352E0],"tree_param":{"num_deleted":"0","num_feature":"77","num_nodes":"5","size_leaf_vector":"1"}},{"base_weights":[-0E0,-3.999369E-1,7.2466135E-2,4.836499E-3,-8.058306E-2],"categories":[],"categories_nodes":[],"categories_segments":[],"categories_sizes":[],"default_left":[0,0,0,0,0],"id":63,"left_children":[1,3,-1,-1,-1],"loss_changes":[3.3954585E0,1.4730921E0,0E0,0E0,0E0],"parents":[2147483647,0,0,1,1],"right_children":[2,4,-1,-1,-1],"split_conditions":[1.73E0,-4.829E-1,7.2466135E-2,4.836499E-3,-8.058306E-2],"split_indices":[56,42,0,0,0],"split_type":[0,0,0,0,0],"sum_hessian":[9.65721E0,6.4651012E0,3.1921086E0,3.3735511E0,3.0915504E0],"tree_param":{"num_deleted":"0","num_feature":"77","num_nodes":"5","size_leaf_vector":"1"}},{"base_weights":[1.0366881E-2,-3.7041956E-1,7.159879E-2,-7.404824E-2,7.1546026E-3],"categories":[],"categories_nodes":[],"categories_segments":[],"categories_sizes":[],"default_left":[0,0,0,0,0],"id":64,"left_children":[1,3,-1,-1,-1],"loss_changes":[3.1004617E0,1.3198801E0,0E0,0E0,0E0],"parents":[2147483647,0,0,1,1],"right_children":[2,4,-1,-1,-1],"split_conditions":[1.73E0,2.657E-1,7.159879E-2,-7.404824E-2,7.1546026E-3],"split_indices":[56,44,0,0,0],"split_type":[0,0,0,0,0],"sum_hessian":[9.423461E0,6.3370266E0,3.0864336E0,3.2046053E0,3.1324213E0],"tree_param":{"num_deleted":"0","num_feature":"77","num_nodes":"5","size_leaf_vector":"1"}},{"base_weights":[1.3128299E-2,-6.591016E-2,4.376736E-2],"categories":[],"categories_nodes":[],"categories_segments":[],"categories_sizes":[],"default_left":[0,0,0],"id":65,"left_children":[1,-1,-1],"loss_changes":[3.1059554E0,0E0,0E0],"parents":[2147483647,0,0],"right_children":[2,-1,-1],"split_conditions":[9.222109E-1,-6.591016E-2,4.376736E-2],"split_indices":[34,0,0],"split_type":[0,0,0],"sum_hessian":[8.949916E0,3.159342E0,5.790574E0],"tree_param":{"num_deleted":"0","num_feature":"77","num_nodes":"3","size_leaf_vector":"1"}},{"base_weights":[-1.3914212E-3,-5.8981627E-2,4.2267032E-2],"categories":[],"categories_nodes":[],"categories_segments":[],"categories_sizes":[],"default_left":[0,0,0],"id":66,"left_children":[1,-1,-1],"loss_changes":[2.6031322E0,0E0,0E0],"parents":[2147483647,0,0],"right_children":[2,-1,-1],"split_conditions":[9.701339E-1,-5.8981627E-2,4.2267032E-2],"split_indices":[34,0,0],"split_type":[0,0,0],"sum_hessian":[8.366144E0,3.439065E0,4.927079E0],"tree_param":{"num_deleted":"0","num_feature":"77","num_nodes":"3","size_leaf_vector":"1"}},{"base_weights":[-0E0,5.6191135E-2,-4.519072E-2],"categories":[],"categories_nodes":[],"categories_segments":[],"categories_sizes":[],"default_left":[0,0,0],"id":67,"left_children":[1,-1,-1],"loss_changes":[2.654992E0,0E0,0E0],"parents":[2147483647,0,0],"right_children":[2,-1,-1],"split_conditions":[-2.87E0,5.6191135E-2,-4.519072E-2],"split_indices":[57,0,0],"split_type":[0,0,0],"sum_hessian":[8.446557E0,3.6769633E0,4.7695932E0],"tree_param":{"num_deleted":"0","num_feature":"77","num_nodes":"3","size_leaf_vector":"1"}},{"base_weights":[8.521967E-2,-3.218722E-2,6.703108E-2],"categories":[],"categories_nodes":[],"categories_segments":[],"categories_sizes":[],"default_left":[0,0,0],"id":68,"left_children":[1,-1,-1],"loss_changes":[2.4479437E0,0E0,0E0],"parents":[2147483647,0,0],"right_children":[2,-1,-1],"split_conditions":[1.039E2,-3.218722E-2,6.703108E-2],"split_indices":[65,0,0],"split_type":[0,0,0],"sum_hessian":[8.225342E0,5.0149956E0,3.210346E0],"tree_param":{"num_deleted":"0","num_feature":"77","num_nodes":"3","size_leaf_vector":"1"}},{"base_weights":[-0E0,-4.2694964E-2,6.1775964E-2],"categories":[],"categories_nodes":[],"categories_segments":[],"categories_sizes":[],"default_left":[0,0,0],"id":69,"left_children":[1,-1,-1],"loss_changes":[2.633027E0,0E0,0E0],"parents":[2147483647,0,0],"right_children":[2,-1,-1],"split_conditions":[1.0356E0,-4.2694964E-2,6.1775964E-2],"split_indices":[50,0,0],"split_type":[0,0,0],"sum_hessian":[7.9775047E0,4.8927064E0,3.0847983E0],"tree_param":{"num_deleted":"0","num_feature":"77","num_nodes":"3","size_leaf_vector":"1"}},{"base_weights":[5.1019445E-2,5.1010936E-2,-3.6780525E-2],"categories":[],"categories_nodes":[],"categories_segments":[],"categories_sizes":[],"default_left":[0,0,0],"id":70,"left_children":[1,-1,-1],"loss_changes":[1.8561486E0,0E0,0E0],"parents":[2147483647,0,0],"right_children":[2,-1,-1],"split_conditions":[9.94E1,5.1010936E-2,-3.6780525E-2],"split_indices":[69,0,0],"split_type":[0,0,0],"sum_hessian":[7.603666E0,3.6373906E0,3.9662755E0],"tree_param":{"num_deleted":"0","num_feature":"77","num_nodes":"3","size_leaf_vector":"1"}},{"base_weights":[-3.3379108E-2,5.0799545E-2,-5.1794585E-2],"categories":[],"categories_nodes":[],"categories_segments":[],"categories_sizes":[],"default_left":[0,0,0],"id":71,"left_children":[1,-1,-1],"loss_changes":[2.3898792E0,0E0,0E0],"parents":[2147483647,0,0],"right_children":[2,-1,-1],"split_conditions":[-7.8E-1,5.0799545E-2,-5.1794585E-2],"split_indices":[55,0,0],"split_type":[0,0,0],"sum_hessian":[7.103355E0,3.234708E0,3.8686466E0],"tree_param":{"num_deleted":"0","num_feature":"77","num_nodes":"3","size_leaf_vector":"1"}},{"base_weights":[3.2924928E-2,-4.3684866E-2,5.916376E-2],"categories":[],"categories_nodes":[],"categories_segments":[],"categories_sizes":[],"default_left":[0,0,0],"id":72,"left_children":[1,-1,-1],"loss_changes":[2.471917E0,0E0,0E0],"parents":[2147483647,0,0],"right_children":[2,-1,-1],"split_conditions":[8.2E-1,-4.3684866E-2,5.916376E-2],"split_indices":[50,0,0],"split_type":[0,0,0],"sum_hessian":[7.3742704E0,4.0272417E0,3.3470287E0],"tree_param":{"num_deleted":"0","num_feature":"77","num_nodes":"3","size_leaf_vector":"1"}},{"base_weights":[3.5735656E-2,5.073594E-2,-3.6009002E-2],"categories":[],"categories_nodes":[],"categories_segments":[],"categories_sizes":[],"default_left":[0,0,0],"id":73,"left_children":[1,-1,-1],"loss_changes":[1.7520554E0,0E0,0E0],"parents":[2147483647,0,0],"right_children":[2,-1,-1],"split_conditions":[-7.2E-1,5.073594E-2,-3.6009002E-2],"split_indices":[55,0,0],"split_type":[0,0,0],"sum_hessian":[7.3277636E0,3.330434E0,3.9973295E0],"tree_param":{"num_deleted":"0","num_feature":"77","num_nodes":"3","size_leaf_vector":"1"}},{"base_weights":[3.4119893E-2,5.212024E-2,-3.31543E-2],"categories":[],"categories_nodes":[],"categories_segments":[],"categories_sizes":[],"default_left":[0,0,0],"id":74,"left_children":[1,-1,-1],"loss_changes":[1.6675553E0,0E0,0E0],"parents":[2147483647,0,0],"right_children":[2,-1,-1],"split_conditions":[-2.87E0,5.212024E-2,-3.31543E-2],"split_indices":[57,0,0],"split_type":[0,0,0],"sum_hessian":[7.2859197E0,3.0591207E0,4.226799E0],"tree_param":{"num_deleted":"0","num_feature":"77","num_nodes":"3","size_leaf_vector":"1"}},{"base_weights":[5.7625946E-2,5.0961327E-2,-3.3393487E-2],"categories":[],"categories_nodes":[],"categories_segments":[],"categories_sizes":[],"default_left":[0,0,0],"id":75,"left_children":[1,-1,-1],"loss_changes":[1.5275723E0,0E0,0E0],"parents":[2147483647,0,0],"right_children":[2,-1,-1],"split_conditions":[9.37E1,5.0961327E-2,-3.3393487E-2],"split_indices":[75,0,0],"split_type":[0,0,0],"sum_hessian":[6.570476E0,3.028504E0,3.5419724E0],"tree_param":{"num_deleted":"0","num_feature":"77","num_nodes":"3","size_leaf_vector":"1"}},{"base_weights":[-8.9715124E-4,-4.2051982E-2,4.3267272E-2],"categories":[],"categories_nodes":[],"categories_segments":[],"categories_sizes":[],"default_left":[0,0,0],"id":76,"left_children":[1,-1,-1],"loss_changes":[1.5513128E0,0E0,0E0],"parents":[2147483647,0,0],"right_children":[2,-1,-1],"split_conditions":[3.11E0,-4.2051982E-2,4.3267272E-2],"split_indices":[53,0,0],"split_type":[0,0,0],"sum_hessian":[6.533323E0,3.452564E0,3.0807588E0],"tree_param":{"num_deleted":"0","num_feature":"77","num_nodes":"3","size_leaf_vector":"1"}},{"base_weights":[-4.8886533E-3,-4.5413934E-2,4.57487E-2],"categories":[],"categories_nodes":[],"categories_segments":[],"categories_sizes":[],"default_left":[0,0,0],"id":77,"left_children":[1,-1,-1],"loss_changes":[1.7441994E0,0E0,0E0],"parents":[2147483647,0,0],"right_children":[2,-1,-1],"split_conditions":[1.07E0,-4.5413934E-2,4.57487E-2],"split_indices":[56,0,0],"split_type":[0,0,0],"sum_hessian":[6.398191E0,3.3638828E0,3.0343084E0],"tree_param":{"num_deleted":"0","num_feature":"77","num_nodes":"3","size_leaf_vector":"1"}},{"base_weights":[2.1669008E-3,-3.9013937E-2,4.0124785E-2],"categories":[],"categories_nodes":[],"categories_segments":[],"categories_sizes":[],"default_left":[0,0,0],"id":78,"left_children":[1,-1,-1],"loss_changes":[1.3101385E0,0E0,0E0],"parents":[2147483647,0,0],"right_children":[2,-1,-1],"split_conditions":[9.3E-1,-3.9013937E-2,4.0124785E-2],"split_indices":[56,0,0],"split_type":[0,0,0],"sum_hessian":[6.361207E0,3.0927694E0,3.2684374E0],"tree_param":{"num_deleted":"0","num_feature":"77","num_nodes":"3","size_leaf_vector":"1"}},{"base_weights":[-0E0,-4.2579487E-2,4.5206923E-2],"categories":[],"categories_nodes":[],"categories_segments":[],"categories_sizes":[],"default_left":[0,0,0],"id":79,"left_children":[1,-1,-1],"loss_changes":[1.6125858E0,0E0,0E0],"parents":[2147483647,0,0],"right_children":[2,-1,-1],"split_conditions":[6.989E-1,-4.2579487E-2,4.5206923E-2],"split_indices":[50,0,0],"split_type":[0,0,0],"sum_hessian":[6.37005E0,3.2476194E0,3.1224303E0],"tree_param":{"num_deleted":"0","num_feature":"77","num_nodes":"3","size_leaf_vector":"1"}},{"base_weights":[3.0342499E-2,-3.8206905E-2,4.756742E-2],"categories":[],"categories_nodes":[],"categories_segments":[],"categories_sizes":[],"default_left":[0,0,0],"id":80,"left_children":[1,-1,-1],"loss_changes":[1.521918E0,0E0,0E0],"parents":[2147483647,0,0],"right_children":[2,-1,-1],"split_conditions":[6.989E-1,-3.8206905E-2,4.756742E-2],"split_indices":[50,0,0],"split_type":[0,0,0],"sum_hessian":[6.2460947E0,3.2000792E0,3.0460153E0],"tree_param":{"num_deleted":"0","num_feature":"77","num_nodes":"3","size_leaf_vector":"1"}},{"base_weights":[5.8044836E-2],"categories":[],"categories_nodes":[],"categories_segments":[],"categories_sizes":[],"default_left":[0],"id":81,"left_children":[-1],"loss_changes":[0E0],"parents":[2147483647],"right_children":[-1],"split_conditions":[5.804484E-3],"split_indices":[0],"split_type":[0],"sum_hessian":[5.9215813E0],"tree_param":{"num_deleted":"0","num_feature":"77","num_nodes":"1","size_leaf_vector":"1"}},{"base_weights":[-5.9908126E-3],"categories":[],"categories_nodes":[],"categories_segments":[],"categories_sizes":[],"default_left":[0],"id":82,"left_children":[-1],"loss_changes":[0E0],"parents":[2147483647],"right_children":[-1],"split_conditions":[-5.990813E-4],"split_indices":[0],"split_type":[0],"sum_hessian":[5.9122715E0],"tree_param":{"num_deleted":"0","num_feature":"77","num_nodes":"1","size_leaf_vector":"1"}},{"base_weights":[3.6667935E-3,3.9445132E-2,-3.6540918E-2],"categories":[],"categories_nodes":[],"categories_segments":[],"categories_sizes":[],"default_left":[0,0,0],"id":83,"left_children":[1,-1,-1],"loss_changes":[1.1622167E0,0E0,0E0],"parents":[2147483647,0,0],"right_children":[2,-1,-1],"split_conditions":[9.99E1,3.9445132E-2,-3.6540918E-2],"split_indices":[69,0,0],"split_type":[0,0,0],"sum_hessian":[6.038634E0,3.031266E0,3.007368E0],"tree_param":{"num_deleted":"0","num_feature":"77","num_nodes":"3","size_leaf_vector":"1"}},{"base_weights":[-5.9252724E-2],"categories":[],"categories_nodes":[],"categories_segments":[],"categories_sizes":[],"default_left":[0],"id":84,"left_children":[-1],"loss_changes":[0E0],"parents":[2147483647],"right_children":[-1],"split_conditions":[-5.9252726E-3],"split_indices":[0],"split_type":[0],"sum_hessian":[5.5660925E0],"tree_param":{"num_deleted":"0","num_feature":"77","num_nodes":"1","size_leaf_vector":"1"}},{"base_weights":[4.4225925E-3],"categories":[],"categories_nodes":[],"categories_segments":[],"categories_sizes":[],"default_left":[0],"id":85,"left_children":[-1],"loss_changes":[0E0],"parents":[2147483647],"right_children":[-1],"split_conditions":[4.4225925E-4],"split_indices":[0],"split_type":[0],"sum_hessian":[5.5116715E0],"tree_param":{"num_deleted":"0","num_feature":"77","num_nodes":"1","size_leaf_vector":"1"}},{"base_weights":[2.5993798E-2,-2.963802E-2,3.6748048E-2],"categories":[],"categories_nodes":[],"categories_segments":[],"categories_sizes":[],"default_left":[0,0,0],"id":86,"left_children":[1,-1,-1],"loss_changes":[8.884265E-1,0E0,0E0],"parents":[2147483647,0,0],"right_children":[2,-1,-1],"split_conditions":[1.92E1,-2.963802E-2,3.6748048E-2],"split_indices":[74,0,0],"split_type":[0,0,0],"sum_hessian":[6.0163293E0,3.012082E0,3.004247E0],"tree_param":{"num_deleted":"0","num_feature":"77","num_nodes":"3","size_leaf_vector":"1"}},{"base_weights":[3.3060037E-2,-4.068369E-2,4.9431663E-2],"categories":[],"categories_nodes":[],"categories_segments":[],"categories_sizes":[],"default_left":[0,0,0],"id":87,"left_children":[1,-1,-1],"loss_changes":[1.6611679E0,0E0,0E0],"parents":[2147483647,0,0],"right_children":[2,-1,-1],"split_conditions":[8.2E-1,-4.068369E-2,4.9431663E-2],"split_indices":[50,0,0],"split_type":[0,0,0],"sum_hessian":[6.152663E0,3.0986686E0,3.0539947E0],"tree_param":{"num_deleted":"0","num_feature":"77","num_nodes":"3","size_leaf_vector":"1"}},{"base_weights":[5.0966322E-2],"categories":[],"categories_nodes":[],"categories_segments":[],"categories_sizes":[],"default_left":[0],"id":88,"left_children":[-1],"loss_changes":[0E0],"parents":[2147483647],"right_children":[-1],"split_conditions":[5.0966325E-3],"split_indices":[0],"split_type":[0],"sum_hessian":[5.444641E0],"tree_param":{"num_deleted":"0","num_feature":"77","num_nodes":"1","size_leaf_vector":"1"}},{"base_weights":[4.8559112E-3],"categories":[],"categories_nodes":[],"categories_segments":[],"categories_sizes":[],"default_left":[0],"id":89,"left_children":[-1],"loss_changes":[0E0],"parents":[2147483647],"right_children":[-1],"split_conditions":[4.8559112E-4],"split_indices":[0],"split_type":[0],"sum_hessian":[5.5823603E0],"tree_param":{"num_deleted":"0","num_feature":"77","num_nodes":"1","size_leaf_vector":"1"}},{"base_weights":[7.1633495E-2],"categories":[],"categories_nodes":[],"categories_segments":[],"categories_sizes":[],"default_left":[0],"id":90,"left_children":[-1],"loss_changes":[0E0],"parents":[2147483647],"right_children":[-1],"split_conditions":[7.1633495E-3],"split_indices":[0],"split_type":[0],"sum_hessian":[5.09978E0],"tree_param":{"num_deleted":"0","num_feature":"77","num_nodes":"1","size_leaf_vector":"1"}},{"base_weights":[-0E0],"categories":[],"categories_nodes":[],"categories_segments":[],"categories_sizes":[],"default_left":[0],"id":91,"left_children":[-1],"loss_changes":[0E0],"parents":[2147483647],"right_children":[-1],"split_conditions":[-0E0],"split_indices":[0],"split_type":[0],"sum_hessian":[5.5046263E0],"tree_param":{"num_deleted":"0","num_feature":"77","num_nodes":"1","size_leaf_vector":"1"}},{"base_weights":[4.0548187E-2],"categories":[],"categories_nodes":[],"categories_segments":[],"categories_sizes":[],"default_left":[0],"id":92,"left_children":[-1],"loss_changes":[0E0],"parents":[2147483647],"right_children":[-1],"split_conditions":[4.054819E-3],"split_indices":[0],"split_type":[0],"sum_hessian":[5.6146874E0],"tree_param":{"num_deleted":"0","num_feature":"77","num_nodes":"1","size_leaf_vector":"1"}},{"base_weights":[-1.4116667E-2],"categories":[],"categories_nodes":[],"categories_segments":[],"categories_sizes":[],"default_left":[0],"id":93,"left_children":[-1],"loss_changes":[0E0],"parents":[2147483647],"right_children":[-1],"split_conditions":[-1.4116667E-3],"split_indices":[0],"split_type":[0],"sum_hessian":[5.709725E0],"tree_param":{"num_deleted":"0","num_feature":"77","num_nodes":"1","size_leaf_vector":"1"}},{"base_weights":[8.770488E-3],"categories":[],"categories_nodes":[],"categories_segments":[],"categories_sizes":[],"default_left":[0],"id":94,"left_children":[-1],"loss_changes":[0E0],"parents":[2147483647],"right_children":[-1],"split_conditions":[8.770488E-4],"split_indices":[0],"split_type":[0],"sum_hessian":[5.9277663E0],"tree_param":{"num_deleted":"0","num_feature":"77","num_nodes":"1","size_leaf_vector":"1"}},{"base_weights":[5.4446563E-2],"categories":[],"categories_nodes":[],"categories_segments":[],"categories_sizes":[],"default_left":[0],"id":95,"left_children":[-1],"loss_changes":[0E0],"parents":[2147483647],"right_children":[-1],"split_conditions":[5.4446566E-3],"split_indices":[0],"split_type":[0],"sum_hessian":[5.2529016E0],"tree_param":{"num_deleted":"0","num_feature":"77","num_nodes":"1","size_leaf_vector":"1"}},{"base_weights":[1.4028211E-2],"categories":[],"categories_nodes":[],"categories_segments":[],"categories_sizes":[],"default_left":[0],"id":96,"left_children":[-1],"loss_changes":[0E0],"parents":[2147483647],"right_children":[-1],"split_conditions":[1.4028212E-3],"split_indices":[0],"split_type":[0],"sum_hessian":[5.920879E0],"tree_param":{"num_deleted":"0","num_feature":"77","num_nodes":"1","size_leaf_vector":"1"}},{"base_weights":[-0E0],"categories":[],"categories_nodes":[],"categories_segments":[],"categories_sizes":[],"default_left":[0],"id":97,"left_children":[-1],"loss_changes":[0E0],"parents":[2147483647],"right_children":[-1],"split_conditions":[-0E0],"split_indices":[0],"split_type":[0],"sum_hessian":[5.7342052E0],"tree_param":{"num_deleted":"0","num_feature":"77","num_nodes":"1","size_leaf_vector":"1"}},{"base_weights":[-3.3298194E-2],"categories":[],"categories_nodes":[],"categories_segments":[],"categories_sizes":[],"default_left":[0],"id":98,"left_children":[-1],"loss_changes":[0E0],"parents":[2147483647],"right_children":[-1],"split_conditions":[-3.3298195E-3],"split_indices":[0],"split_type":[0],"sum_hessian":[5.5827284E0],"tree_param":{"num_deleted":"0","num_feature":"77","num_nodes":"1","size_leaf_vector":"1"}},{"base_weights":[5.181659E-2],"categories":[],"categories_nodes":[],"categories_segments":[],"categories_sizes":[],"default_left":[0],"id":99,"left_children":[-1],"loss_changes":[0E0],"parents":[2147483647],"right_children":[-1],"split_conditions":[5.181659E-3],"split_indices":[0],"split_type":[0],"sum_hessian":[5.477611E0],"tree_param":{"num_deleted":"0","num_feature":"77","num_nodes":"1","size_leaf_vector":"1"}},{"base_weights":[2.3528328E-2],"categories":[],"categories_nodes":[],"categories_segments":[],"categories_sizes":[],"default_left":[0],"id":100,"left_children":[-1],"loss_changes":[0E0],"parents":[2147483647],"right_children":[-1],"split_conditions":[2.3528328E-3],"split_indices":[0],"split_type":[0],"sum_hessian":[5.738528E0],"tree_param":{"num_deleted":"0","num_feature":"77","num_nodes":"1","size_leaf_vector":"1"}},{"base_weights":[-2.5848834E-2],"categories":[],"categories_nodes":[],"categories_segments":[],"categories_sizes":[],"default_left":[0],"id":101,"left_children":[-1],"loss_changes":[0E0],"parents":[2147483647],"right_children":[-1],"split_conditions":[-2.5848835E-3],"split_indices":[0],"split_type":[0],"sum_hessian":[5.4767885E0],"tree_param":{"num_deleted":"0","num_feature":"77","num_nodes":"1","size_leaf_vector":"1"}},{"base_weights":[4.930665E-2],"categories":[],"categories_nodes":[],"categories_segments":[],"categories_sizes":[],"default_left":[0],"id":102,"left_children":[-1],"loss_changes":[0E0],"parents":[2147483647],"right_children":[-1],"split_conditions":[4.9306653E-3],"split_indices":[0],"split_type":[0],"sum_hessian":[5.531487E0],"tree_param":{"num_deleted":"0","num_feature":"77","num_nodes":"1","size_leaf_vector":"1"}},{"base_weights":[5.6332637E-2],"categories":[],"categories_nodes":[],"categories_segments":[],"categories_sizes":[],"default_left":[0],"id":103,"left_children":[-1],"loss_changes":[0E0],"parents":[2147483647],"right_children":[-1],"split_conditions":[5.633264E-3],"split_indices":[0],"split_type":[0],"sum_hessian":[5.568627E0],"tree_param":{"num_deleted":"0","num_feature":"77","num_nodes":"1","size_leaf_vector":"1"}},{"base_weights":[2.921029E-3],"categories":[],"categories_nodes":[],"categories_segments":[],"categories_sizes":[],"default_left":[0],"id":104,"left_children":[-1],"loss_changes":[0E0],"parents":[2147483647],"right_children":[-1],"split_conditions":[2.921029E-4],"split_indices":[0],"split_type":[0],"sum_hessian":[5.6080923E0],"tree_param":{"num_deleted":"0","num_feature":"77","num_nodes":"1","size_leaf_vector":"1"}},{"base_weights":[-1.9547788E-2],"categories":[],"categories_nodes":[],"categories_segments":[],"categories_sizes":[],"default_left":[0],"id":105,"left_children":[-1],"loss_changes":[0E0],"parents":[2147483647],"right_children":[-1],"split_conditions":[-1.9547788E-3],"split_indices":[0],"split_type":[0],"sum_hessian":[5.7943077E0],"tree_param":{"num_deleted":"0","num_feature":"77","num_nodes":"1","size_leaf_vector":"1"}},{"base_weights":[-0E0],"categories":[],"categories_nodes":[],"categories_segments":[],"categories_sizes":[],"default_left":[0],"id":106,"left_children":[-1],"loss_changes":[0E0],"parents":[2147483647],"right_children":[-1],"split_conditions":[-0E0],"split_indices":[0],"split_type":[0],"sum_hessian":[5.833079E0],"tree_param":{"num_deleted":"0","num_feature":"77","num_nodes":"1","size_leaf_vector":"1"}},{"base_weights":[-0E0],"categories":[],"categories_nodes":[],"categories_segments":[],"categories_sizes":[],"default_left":[0],"id":107,"left_children":[-1],"loss_changes":[0E0],"parents":[2147483647],"right_children":[-1],"split_conditions":[-0E0],"split_indices":[0],"split_type":[0],"sum_hessian":[5.3580446E0],"tree_param":{"num_deleted":"0","num_feature":"77","num_nodes":"1","size_leaf_vector":"1"}},{"base_weights":[-4.955245E-2],"categories":[],"categories_nodes":[],"categories_segments":[],"categories_sizes":[],"default_left":[0],"id":108,"left_children":[-1],"loss_changes":[0E0],"parents":[2147483647],"right_children":[-1],"split_conditions":[-4.955245E-3],"split_indices":[0],"split_type":[0],"sum_hessian":[5.5732756E0],"tree_param":{"num_deleted":"0","num_feature":"77","num_nodes":"1","size_leaf_vector":"1"}},{"base_weights":[-0E0],"categories":[],"categories_nodes":[],"categories_segments":[],"categories_sizes":[],"default_left":[0],"id":109,"left_children":[-1],"loss_changes":[0E0],"parents":[2147483647],"right_children":[-1],"split_conditions":[-0E0],"split_indices":[0],"split_type":[0],"sum_hessian":[5.819001E0],"tree_param":{"num_deleted":"0","num_feature":"77","num_nodes":"1","size_leaf_vector":"1"}},{"base_weights":[-1.15931295E-2],"categories":[],"categories_nodes":[],"categories_segments":[],"categories_sizes":[],"default_left":[0],"id":110,"left_children":[-1],"loss_changes":[0E0],"parents":[2147483647],"right_children":[-1],"split_conditions":[-1.159313E-3],"split_indices":[0],"split_type":[0],"sum_hessian":[5.860753E0],"tree_param":{"num_deleted":"0","num_feature":"77","num_nodes":"1","size_leaf_vector":"1"}},{"base_weights":[3.3006083E-2],"categories":[],"categories_nodes":[],"categories_segments":[],"categories_sizes":[],"default_left":[0],"id":111,"left_children":[-1],"loss_changes":[0E0],"parents":[2147483647],"right_children":[-1],"split_conditions":[3.3006084E-3],"split_indices":[0],"split_type":[0],"sum_hessian":[5.1234646E0],"tree_param":{"num_deleted":"0","num_feature":"77","num_nodes":"1","size_leaf_vector":"1"}},{"base_weights":[-9.881385E-3],"categories":[],"categories_nodes":[],"categories_segments":[],"categories_sizes":[],"default_left":[0],"id":112,"left_children":[-1],"loss_changes":[0E0],"parents":[2147483647],"right_children":[-1],"split_conditions":[-9.881385E-4],"split_indices":[0],"split_type":[0],"sum_hessian":[5.920363E0],"tree_param":{"num_deleted":"0","num_feature":"77","num_nodes":"1","size_leaf_vector":"1"}},{"base_weights":[-3.4859855E-2],"categories":[],"categories_nodes":[],"categories_segments":[],"categories_sizes":[],"default_left":[0],"id":113,"left_children":[-1],"loss_changes":[0E0],"parents":[2147483647],"right_children":[-1],"split_conditions":[-3.4859856E-3],"split_indices":[0],"split_type":[0],"sum_hessian":[5.3618393E0],"tree_param":{"num_deleted":"0","num_feature":"77","num_nodes":"1","size_leaf_vector":"1"}},{"base_weights":[4.553631E-4],"categories":[],"categories_nodes":[],"categories_segments":[],"categories_sizes":[],"default_left":[0],"id":114,"left_children":[-1],"loss_changes":[0E0],"parents":[2147483647],"right_children":[-1],"split_conditions":[4.553631E-5],"split_indices":[0],"split_type":[0],"sum_hessian":[5.928461E0],"tree_param":{"num_deleted":"0","num_feature":"77","num_nodes":"1","size_leaf_vector":"1"}},{"base_weights":[7.1706986E-3],"categories":[],"categories_nodes":[],"categories_segments":[],"categories_sizes":[],"default_left":[0],"id":115,"left_children":[-1],"loss_changes":[0E0],"parents":[2147483647],"right_children":[-1],"split_conditions":[7.170699E-4],"split_indices":[0],"split_type":[0],"sum_hessian":[5.8300047E0],"tree_param":{"num_deleted":"0","num_feature":"77","num_nodes":"1","size_leaf_vector":"1"}},{"base_weights":[1.5039911E-2],"categories":[],"categories_nodes":[],"categories_segments":[],"categories_sizes":[],"default_left":[0],"id":116,"left_children":[-1],"loss_changes":[0E0],"parents":[2147483647],"right_children":[-1],"split_conditions":[1.5039911E-3],"split_indices":[0],"split_type":[0],"sum_hessian":[5.425118E0],"tree_param":{"num_deleted":"0","num_feature":"77","num_nodes":"1","size_leaf_vector":"1"}},{"base_weights":[2.9247766E-2],"categories":[],"categories_nodes":[],"categories_segments":[],"categories_sizes":[],"default_left":[0],"id":117,"left_children":[-1],"loss_changes":[0E0],"parents":[2147483647],"right_children":[-1],"split_conditions":[2.9247766E-3],"split_indices":[0],"split_type":[0],"sum_hessian":[5.764449E0],"tree_param":{"num_deleted":"0","num_feature":"77","num_nodes":"1","size_leaf_vector":"1"}},{"base_weights":[-0E0],"categories":[],"categories_nodes":[],"categories_segments":[],"categories_sizes":[],"default_left":[0],"id":118,"left_children":[-1],"loss_changes":[0E0],"parents":[2147483647],"right_children":[-1],"split_conditions":[-0E0],"split_indices":[0],"split_type":[0],"sum_hessian":[5.5988717E0],"tree_param":{"num_deleted":"0","num_feature":"77","num_nodes":"1","size_leaf_vector":"1"}},{"base_weights":[-0E0],"categories":[],"categories_nodes":[],"categories_segments":[],"categories_sizes":[],"default_left":[0],"id":119,"left_children":[-1],"loss_changes":[0E0],"parents":[2147483647],"right_children":[-1],"split_conditions":[-0E0],"split_indices":[0],"split_type":[0],"sum_hessian":[5.825481E0],"tree_param":{"num_deleted":"0","num_feature":"77","num_nodes":"1","size_leaf_vector":"1"}},{"base_weights":[-0E0],"categories":[],"categories_nodes":[],"categories_segments":[],"categories_sizes":[],"default_left":[0],"id":120,"left_children":[-1],"loss_changes":[0E0],"parents":[2147483647],"right_children":[-1],"split_conditions":[-0E0],"split_indices":[0],"split_type":[0],"sum_hessian":[5.985177E0],"tree_param":{"num_deleted":"0","num_feature":"77","num_nodes":"1","size_leaf_vector":"1"}},{"base_weights":[1.8797034E-2],"categories":[],"categories_nodes":[],"categories_segments":[],"categories_sizes":[],"default_left":[0],"id":121,"left_children":[-1],"loss_changes":[0E0],"parents":[2147483647],"right_children":[-1],"split_conditions":[1.8797035E-3],"split_indices":[0],"split_type":[0],"sum_hessian":[5.6006074E0],"tree_param":{"num_deleted":"0","num_feature":"77","num_nodes":"1","size_leaf_vector":"1"}},{"base_weights":[3.6995668E-2],"categories":[],"categories_nodes":[],"categories_segments":[],"categories_sizes":[],"default_left":[0],"id":122,"left_children":[-1],"loss_changes":[0E0],"parents":[2147483647],"right_children":[-1],"split_conditions":[3.699567E-3],"split_indices":[0],"split_type":[0],"sum_hessian":[5.806111E0],"tree_param":{"num_deleted":"0","num_feature":"77","num_nodes":"1","size_leaf_vector":"1"}},{"base_weights":[2.5816014E-2,-3.8327288E-2,4.5084424E-2],"categories":[],"categories_nodes":[],"categories_segments":[],"categories_sizes":[],"default_left":[0,0,0],"id":123,"left_children":[1,-1,-1],"loss_changes":[1.4062774E0,0E0,0E0],"parents":[2147483647,0,0],"right_children":[2,-1,-1],"split_conditions":[6.989E-1,-3.8327288E-2,4.5084424E-2],"split_indices":[50,0,0],"split_type":[0,0,0],"sum_hessian":[6.055233E0,3.0156438E0,3.039589E0],"tree_param":{"num_deleted":"0","num_feature":"77","num_nodes":"3","size_leaf_vector":"1"}},{"base_weights":[-0E0],"categories":[],"categories_nodes":[],"categories_segments":[],"categories_sizes":[],"default_left":[0],"id":124,"left_children":[-1],"loss_changes":[0E0],"parents":[2147483647],"right_children":[-1],"split_conditions":[-0E0],"split_indices":[0],"split_type":[0],"sum_hessian":[5.3143764E0],"tree_param":{"num_deleted":"0","num_feature":"77","num_nodes":"1","size_leaf_vector":"1"}},{"base_weights":[-3.548005E-2],"categories":[],"categories_nodes":[],"categories_segments":[],"categories_sizes":[],"default_left":[0],"id":125,"left_children":[-1],"loss_changes":[0E0],"parents":[2147483647],"right_children":[-1],"split_conditions":[-3.548005E-3],"split_indices":[0],"split_type":[0],"sum_hessian":[5.5123987E0],"tree_param":{"num_deleted":"0","num_feature":"77","num_nodes":"1","size_leaf_vector":"1"}},{"base_weights":[-0E0],"categories":[],"categories_nodes":[],"categories_segments":[],"categories_sizes":[],"default_left":[0],"id":126,"left_children":[-1],"loss_changes":[0E0],"parents":[2147483647],"right_children":[-1],"split_conditions":[-0E0],"split_indices":[0],"split_type":[0],"sum_hessian":[5.280387E0],"tree_param":{"num_deleted":"0","num_feature":"77","num_nodes":"1","size_leaf_vector":"1"}},{"base_weights":[-0E0],"categories":[],"categories_nodes":[],"categories_segments":[],"categories_sizes":[],"default_left":[0],"id":127,"left_children":[-1],"loss_changes":[0E0],"parents":[2147483647],"right_children":[-1],"split_conditions":[-0E0],"split_indices":[0],"split_type":[0],"sum_hessian":[5.7483234E0],"tree_param":{"num_deleted":"0","num_feature":"77","num_nodes":"1","size_leaf_vector":"1"}},{"base_weights":[1.20927036E-1],"categories":[],"categories_nodes":[],"categories_segments":[],"categories_sizes":[],"default_left":[0],"id":128,"left_children":[-1],"loss_changes":[0E0],"parents":[2147483647],"right_children":[-1],"split_conditions":[1.2092704E-2],"split_indices":[0],"split_type":[0],"sum_hessian":[5.369579E0],"tree_param":{"num_deleted":"0","num_feature":"77","num_nodes":"1","size_leaf_vector":"1"}},{"base_weights":[-0E0],"categories":[],"categories_nodes":[],"categories_segments":[],"categories_sizes":[],"default_left":[0],"id":129,"left_children":[-1],"loss_changes":[0E0],"parents":[2147483647],"right_children":[-1],"split_conditions":[-0E0],"split_indices":[0],"split_type":[0],"sum_hessian":[5.475965E0],"tree_param":{"num_deleted":"0","num_feature":"77","num_nodes":"1","size_leaf_vector":"1"}},{"base_weights":[-2.124313E-2],"categories":[],"categories_nodes":[],"categories_segments":[],"categories_sizes":[],"default_left":[0],"id":130,"left_children":[-1],"loss_changes":[0E0],"parents":[2147483647],"right_children":[-1],"split_conditions":[-2.124313E-3],"split_indices":[0],"split_type":[0],"sum_hessian":[5.4515758E0],"tree_param":{"num_deleted":"0","num_feature":"77","num_nodes":"1","size_leaf_vector":"1"}},{"base_weights":[-0E0],"categories":[],"categories_nodes":[],"categories_segments":[],"categories_sizes":[],"default_left":[0],"id":131,"left_children":[-1],"loss_changes":[0E0],"parents":[2147483647],"right_children":[-1],"split_conditions":[-0E0],"split_indices":[0],"split_type":[0],"sum_hessian":[5.038064E0],"tree_param":{"num_deleted":"0","num_feature":"77","num_nodes":"1","size_leaf_vector":"1"}},{"base_weights":[-7.628487E-3],"categories":[],"categories_nodes":[],"categories_segments":[],"categories_sizes":[],"default_left":[0],"id":132,"left_children":[-1],"loss_changes":[0E0],"parents":[2147483647],"right_children":[-1],"split_conditions":[-7.628487E-4],"split_indices":[0],"split_type":[0],"sum_hessian":[5.4494786E0],"tree_param":{"num_deleted":"0","num_feature":"77","num_nodes":"1","size_leaf_vector":"1"}},{"base_weights":[-0E0],"categories":[],"categories_nodes":[],"categories_segments":[],"categories_sizes":[],"default_left":[0],"id":133,"left_children":[-1],"loss_changes":[0E0],"parents":[2147483647],"right_children":[-1],"split_conditions":[-0E0],"split_indices":[0],"split_type":[0],"sum_hessian":[5.229157E0],"tree_param":{"num_deleted":"0","num_feature":"77","num_nodes":"1","size_leaf_vector":"1"}},{"base_weights":[-0E0],"categories":[],"categories_nodes":[],"categories_segments":[],"categories_sizes":[],"default_left":[0],"id":134,"left_children":[-1],"loss_changes":[0E0],"parents":[2147483647],"right_children":[-1],"split_conditions":[-0E0],"split_indices":[0],"split_type":[0],"sum_hessian":[5.578956E0],"tree_param":{"num_deleted":"0","num_feature":"77","num_nodes":"1","size_leaf_vector":"1"}},{"base_weights":[3.7663374E-2],"categories":[],"categories_nodes":[],"categories_segments":[],"categories_sizes":[],"default_left":[0],"id":135,"left_children":[-1],"loss_changes":[0E0],"parents":[2147483647],"right_children":[-1],"split_conditions":[3.7663374E-3],"split_indices":[0],"split_type":[0],"sum_hessian":[5.365172E0],"tree_param":{"num_deleted":"0","num_feature":"77","num_nodes":"1","size_leaf_vector":"1"}},{"base_weights":[-8.2049996E-2],"categories":[],"categories_nodes":[],"categories_segments":[],"categories_sizes":[],"default_left":[0],"id":136,"left_children":[-1],"loss_changes":[0E0],"parents":[2147483647],"right_children":[-1],"split_conditions":[-8.204999E-3],"split_indices":[0],"split_type":[0],"sum_hessian":[5.330131E0],"tree_param":{"num_deleted":"0","num_feature":"77","num_nodes":"1","size_leaf_vector":"1"}},{"base_weights":[8.122997E-2],"categories":[],"categories_nodes":[],"categories_segments":[],"categories_sizes":[],"default_left":[0],"id":137,"left_children":[-1],"loss_changes":[0E0],"parents":[2147483647],"right_children":[-1],"split_conditions":[8.122997E-3],"split_indices":[0],"split_type":[0],"sum_hessian":[5.2665243E0],"tree_param":{"num_deleted":"0","num_feature":"77","num_nodes":"1","size_leaf_vector":"1"}},{"base_weights":[-4.0124014E-2],"categories":[],"categories_nodes":[],"categories_segments":[],"categories_sizes":[],"default_left":[0],"id":138,"left_children":[-1],"loss_changes":[0E0],"parents":[2147483647],"right_children":[-1],"split_conditions":[-4.0124017E-3],"split_indices":[0],"split_type":[0],"sum_hessian":[5.299964E0],"tree_param":{"num_deleted":"0","num_feature":"77","num_nodes":"1","size_leaf_vector":"1"}},{"base_weights":[-8.826398E-3],"categories":[],"categories_nodes":[],"categories_segments":[],"categories_sizes":[],"default_left":[0],"id":139,"left_children":[-1],"loss_changes":[0E0],"parents":[2147483647],"right_children":[-1],"split_conditions":[-8.8263984E-4],"split_indices":[0],"split_type":[0],"sum_hessian":[5.721694E0],"tree_param":{"num_deleted":"0","num_feature":"77","num_nodes":"1","size_leaf_vector":"1"}},{"base_weights":[9.042577E-3],"categories":[],"categories_nodes":[],"categories_segments":[],"categories_sizes":[],"default_left":[0],"id":140,"left_children":[-1],"loss_changes":[0E0],"parents":[2147483647],"right_children":[-1],"split_conditions":[9.042577E-4],"split_indices":[0],"split_type":[0],"sum_hessian":[5.320434E0],"tree_param":{"num_deleted":"0","num_feature":"77","num_nodes":"1","size_leaf_vector":"1"}},{"base_weights":[-1.6834145E-2],"categories":[],"categories_nodes":[],"categories_segments":[],"categories_sizes":[],"default_left":[0],"id":141,"left_children":[-1],"loss_changes":[0E0],"parents":[2147483647],"right_children":[-1],"split_conditions":[-1.6834146E-3],"split_indices":[0],"split_type":[0],"sum_hessian":[5.310714E0],"tree_param":{"num_deleted":"0","num_feature":"77","num_nodes":"1","size_leaf_vector":"1"}},{"base_weights":[4.895685E-2],"categories":[],"categories_nodes":[],"categories_segments":[],"categories_sizes":[],"default_left":[0],"id":142,"left_children":[-1],"loss_changes":[0E0],"parents":[2147483647],"right_children":[-1],"split_conditions":[4.895685E-3],"split_indices":[0],"split_type":[0],"sum_hessian":[4.9660172E0],"tree_param":{"num_deleted":"0","num_feature":"77","num_nodes":"1","size_leaf_vector":"1"}},{"base_weights":[3.3962287E-2],"categories":[],"categories_nodes":[],"categories_segments":[],"categories_sizes":[],"default_left":[0],"id":143,"left_children":[-1],"loss_changes":[0E0],"parents":[2147483647],"right_children":[-1],"split_conditions":[3.3962287E-3],"split_indices":[0],"split_type":[0],"sum_hessian":[5.6673937E0],"tree_param":{"num_deleted":"0","num_feature":"77","num_nodes":"1","size_leaf_vector":"1"}},{"base_weights":[-4.687433E-2],"categories":[],"categories_nodes":[],"categories_segments":[],"categories_sizes":[],"default_left":[0],"id":144,"left_children":[-1],"loss_changes":[0E0],"parents":[2147483647],"right_children":[-1],"split_conditions":[-4.687433E-3],"split_indices":[0],"split_type":[0],"sum_hessian":[5.478755E0],"tree_param":{"num_deleted":"0","num_feature":"77","num_nodes":"1","size_leaf_vector":"1"}},{"base_weights":[-1.1620312E-2],"categories":[],"categories_nodes":[],"categories_segments":[],"categories_sizes":[],"default_left":[0],"id":145,"left_children":[-1],"loss_changes":[0E0],"parents":[2147483647],"right_children":[-1],"split_conditions":[-1.1620312E-3],"split_indices":[0],"split_type":[0],"sum_hessian":[5.251987E0],"tree_param":{"num_deleted":"0","num_feature":"77","num_nodes":"1","size_leaf_vector":"1"}},{"base_weights":[-6.1552017E-3],"categories":[],"categories_nodes":[],"categories_segments":[],"categories_sizes":[],"default_left":[0],"id":146,"left_children":[-1],"loss_changes":[0E0],"parents":[2147483647],"right_children":[-1],"split_conditions":[-6.1552017E-4],"split_indices":[0],"split_type":[0],"sum_hessian":[5.8361826E0],"tree_param":{"num_deleted":"0","num_feature":"77","num_nodes":"1","size_leaf_vector":"1"}},{"base_weights":[-0E0],"categories":[],"categories_nodes":[],"categories_segments":[],"categories_sizes":[],"default_left":[0],"id":147,"left_children":[-1],"loss_changes":[0E0],"parents":[2147483647],"right_children":[-1],"split_conditions":[-0E0],"split_indices":[0],"split_type":[0],"sum_hessian":[5.3835583E0],"tree_param":{"num_deleted":"0","num_feature":"77","num_nodes":"1","size_leaf_vector":"1"}},{"base_weights":[-0E0],"categories":[],"categories_nodes":[],"categories_segments":[],"categories_sizes":[],"default_left":[0],"id":148,"left_children":[-1],"loss_changes":[0E0],"parents":[2147483647],"right_children":[-1],"split_conditions":[-0E0],"split_indices":[0],"split_type":[0],"sum_hessian":[5.286104E0],"tree_param":{"num_deleted":"0","num_feature":"77","num_nodes":"1","size_leaf_vector":"1"}},{"base_weights":[-4.1934595E-2],"categories":[],"categories_nodes":[],"categories_segments":[],"categories_sizes":[],"default_left":[0],"id":149,"left_children":[-1],"loss_changes":[0E0],"parents":[2147483647],"right_children":[-1],"split_conditions":[-4.1934596E-3],"split_indices":[0],"split_type":[0],"sum_hessian":[5.270417E0],"tree_param":{"num_deleted":"0","num_feature":"77","num_nodes":"1","size_leaf_vector":"1"}},{"base_weights":[5.5860947E-3],"categories":[],"categories_nodes":[],"categories_segments":[],"categories_sizes":[],"default_left":[0],"id":150,"left_children":[-1],"loss_changes":[0E0],"parents":[2147483647],"right_children":[-1],"split_conditions":[5.586095E-4],"split_indices":[0],"split_type":[0],"sum_hessian":[5.427933E0],"tree_param":{"num_deleted":"0","num_feature":"77","num_nodes":"1","size_leaf_vector":"1"}},{"base_weights":[4.9444346E-4],"categories":[],"categories_nodes":[],"categories_segments":[],"categories_sizes":[],"default_left":[0],"id":151,"left_children":[-1],"loss_changes":[0E0],"parents":[2147483647],"right_children":[-1],"split_conditions":[4.944435E-5],"split_indices":[0],"split_type":[0],"sum_hessian":[5.3239317E0],"tree_param":{"num_deleted":"0","num_feature":"77","num_nodes":"1","size_leaf_vector":"1"}},{"base_weights":[-0E0],"categories":[],"categories_nodes":[],"categories_segments":[],"categories_sizes":[],"default_left":[0],"id":152,"left_children":[-1],"loss_changes":[0E0],"parents":[2147483647],"right_children":[-1],"split_conditions":[-0E0],"split_indices":[0],"split_type":[0],"sum_hessian":[5.8056326E0],"tree_param":{"num_deleted":"0","num_feature":"77","num_nodes":"1","size_leaf_vector":"1"}},{"base_weights":[-0E0],"categories":[],"categories_nodes":[],"categories_segments":[],"categories_sizes":[],"default_left":[0],"id":153,"left_children":[-1],"loss_changes":[0E0],"parents":[2147483647],"right_children":[-1],"split_conditions":[-0E0],"split_indices":[0],"split_type":[0],"sum_hessian":[5.615896E0],"tree_param":{"num_deleted":"0","num_feature":"77","num_nodes":"1","size_leaf_vector":"1"}},{"base_weights":[-0E0],"categories":[],"categories_nodes":[],"categories_segments":[],"categories_sizes":[],"default_left":[0],"id":154,"left_children":[-1],"loss_changes":[0E0],"parents":[2147483647],"right_children":[-1],"split_conditions":[-0E0],"split_indices":[0],"split_type":[0],"sum_hessian":[5.8763795E0],"tree_param":{"num_deleted":"0","num_feature":"77","num_nodes":"1","size_leaf_vector":"1"}},{"base_weights":[-0E0],"categories":[],"categories_nodes":[],"categories_segments":[],"categories_sizes":[],"default_left":[0],"id":155,"left_children":[-1],"loss_changes":[0E0],"parents":[2147483647],"right_children":[-1],"split_conditions":[-0E0],"split_indices":[0],"split_type":[0],"sum_hessian":[5.9269147E0],"tree_param":{"num_deleted":"0","num_feature":"77","num_nodes":"1","size_leaf_vector":"1"}},{"base_weights":[-0E0],"categories":[],"categories_nodes":[],"categories_segments":[],"categories_sizes":[],"default_left":[0],"id":156,"left_children":[-1],"loss_changes":[0E0],"parents":[2147483647],"right_children":[-1],"split_conditions":[-0E0],"split_indices":[0],"split_type":[0],"sum_hessian":[4.8828197E0],"tree_param":{"num_deleted":"0","num_feature":"77","num_nodes":"1","size_leaf_vector":"1"}},{"base_weights":[-0E0,-3.6270995E-2,3.8074136E-2],"categories":[],"categories_nodes":[],"categories_segments":[],"categories_sizes":[],"default_left":[0,0,0],"id":157,"left_children":[1,-1,-1],"loss_changes":[1.1126864E0,0E0,0E0],"parents":[2147483647,0,0],"right_children":[2,-1,-1],"split_conditions":[7.756175E-2,-3.6270995E-2,3.8074136E-2],"split_indices":[27,0,0],"split_type":[0,0,0],"sum_hessian":[6.04583E0,3.0035267E0,3.042303E0],"tree_param":{"num_deleted":"0","num_feature":"77","num_nodes":"3","size_leaf_vector":"1"}},{"base_weights":[2.57459E-2],"categories":[],"categories_nodes":[],"categories_segments":[],"categories_sizes":[],"default_left":[0],"id":158,"left_children":[-1],"loss_changes":[0E0],"parents":[2147483647],"right_children":[-1],"split_conditions":[2.57459E-3],"split_indices":[0],"split_type":[0],"sum_hessian":[5.4593577E0],"tree_param":{"num_deleted":"0","num_feature":"77","num_nodes":"1","size_leaf_vector":"1"}},{"base_weights":[7.8425206E-2],"categories":[],"categories_nodes":[],"categories_segments":[],"categories_sizes":[],"default_left":[0],"id":159,"left_children":[-1],"loss_changes":[0E0],"parents":[2147483647],"right_children":[-1],"split_conditions":[7.842521E-3],"split_indices":[0],"split_type":[0],"sum_hessian":[5.1935797E0],"tree_param":{"num_deleted":"0","num_feature":"77","num_nodes":"1","size_leaf_vector":"1"}},{"base_weights":[1.6117392E-3],"categories":[],"categories_nodes":[],"categories_segments":[],"categories_sizes":[],"default_left":[0],"id":160,"left_children":[-1],"loss_changes":[0E0],"parents":[2147483647],"right_children":[-1],"split_conditions":[1.6117391E-4],"split_indices":[0],"split_type":[0],"sum_hessian":[5.4974313E0],"tree_param":{"num_deleted":"0","num_feature":"77","num_nodes":"1","size_leaf_vector":"1"}},{"base_weights":[-0E0],"categories":[],"categories_nodes":[],"categories_segments":[],"categories_sizes":[],"default_left":[0],"id":161,"left_children":[-1],"loss_changes":[0E0],"parents":[2147483647],"right_children":[-1],"split_conditions":[-0E0],"split_indices":[0],"split_type":[0],"sum_hessian":[5.560215E0],"tree_param":{"num_deleted":"0","num_feature":"77","num_nodes":"1","size_leaf_vector":"1"}},{"base_weights":[-0E0],"categories":[],"categories_nodes":[],"categories_segments":[],"categories_sizes":[],"default_left":[0],"id":162,"left_children":[-1],"loss_changes":[0E0],"parents":[2147483647],"right_children":[-1],"split_conditions":[-0E0],"split_indices":[0],"split_type":[0],"sum_hessian":[5.6889935E0],"tree_param":{"num_deleted":"0","num_feature":"77","num_nodes":"1","size_leaf_vector":"1"}},{"base_weights":[-9.996664E-2],"categories":[],"categories_nodes":[],"categories_segments":[],"categories_sizes":[],"default_left":[0],"id":163,"left_children":[-1],"loss_changes":[0E0],"parents":[2147483647],"right_children":[-1],"split_conditions":[-9.996664E-3],"split_indices":[0],"split_type":[0],"sum_hessian":[5.2008905E0],"tree_param":{"num_deleted":"0","num_feature":"77","num_nodes":"1","size_leaf_vector":"1"}},{"base_weights":[-5.0283376E-2],"categories":[],"categories_nodes":[],"categories_segments":[],"categories_sizes":[],"default_left":[0],"id":164,"left_children":[-1],"loss_changes":[0E0],"parents":[2147483647],"right_children":[-1],"split_conditions":[-5.0283377E-3],"split_indices":[0],"split_type":[0],"sum_hessian":[5.3267493E0],"tree_param":{"num_deleted":"0","num_feature":"77","num_nodes":"1","size_leaf_vector":"1"}},{"base_weights":[-4.186226E-3],"categories":[],"categories_nodes":[],"categories_segments":[],"categories_sizes":[],"default_left":[0],"id":165,"left_children":[-1],"loss_changes":[0E0],"parents":[2147483647],"right_children":[-1],"split_conditions":[-4.186226E-4],"split_indices":[0],"split_type":[0],"sum_hessian":[5.169616E0],"tree_param":{"num_deleted":"0","num_feature":"77","num_nodes":"1","size_leaf_vector":"1"}},{"base_weights":[1.3201538E-2],"categories":[],"categories_nodes":[],"categories_segments":[],"categories_sizes":[],"default_left":[0],"id":166,"left_children":[-1],"loss_changes":[0E0],"parents":[2147483647],"right_children":[-1],"split_conditions":[1.3201538E-3],"split_indices":[0],"split_type":[0],"sum_hessian":[5.3462696E0],"tree_param":{"num_deleted":"0","num_feature":"77","num_nodes":"1","size_leaf_vector":"1"}},{"base_weights":[3.0293778E-4],"categories":[],"categories_nodes":[],"categories_segments":[],"categories_sizes":[],"default_left":[0],"id":167,"left_children":[-1],"loss_changes":[0E0],"parents":[2147483647],"right_children":[-1],"split_conditions":[3.0293779E-5],"split_indices":[0],"split_type":[0],"sum_hessian":[5.9332075E0],"tree_param":{"num_deleted":"0","num_feature":"77","num_nodes":"1","size_leaf_vector":"1"}},{"base_weights":[-1.0289614E-2],"categories":[],"categories_nodes":[],"categories_segments":[],"categories_sizes":[],"default_left":[0],"id":168,"left_children":[-1],"loss_changes":[0E0],"parents":[2147483647],"right_children":[-1],"split_conditions":[-1.0289614E-3],"split_indices":[0],"split_type":[0],"sum_hessian":[5.628158E0],"tree_param":{"num_deleted":"0","num_feature":"77","num_nodes":"1","size_leaf_vector":"1"}},{"base_weights":[-0E0],"categories":[],"categories_nodes":[],"categories_segments":[],"categories_sizes":[],"default_left":[0],"id":169,"left_children":[-1],"loss_changes":[0E0],"parents":[2147483647],"right_children":[-1],"split_conditions":[-0E0],"split_indices":[0],"split_type":[0],"sum_hessian":[5.6811666E0],"tree_param":{"num_deleted":"0","num_feature":"77","num_nodes":"1","size_leaf_vector":"1"}},{"base_weights":[-0E0],"categories":[],"categories_nodes":[],"categories_segments":[],"categories_sizes":[],"default_left":[0],"id":170,"left_children":[-1],